{"learner":{"attributes":{"best_iteration":"99","best_ntree_limit":"100"},"feature_names":["Unnamed: 0","carat","cut","color","clarity","depth","table","x","y","z"],"feature_types":["int","float","c","c","c","float","float","float","float","float"],"gradient_booster":{"model":{"gbtree_model_param":{"num_parallel_tree":"1","num_trees":"100","size_leaf_vector":"0"},"tree_info":[0,0,0,0,0,0,0,0,0,0,0,0,0,0,0,0,0,0,0,0,0,0,0,0,0,0,0,0,0,0,0,0,0,0,0,0,0,0,0,0,0,0,0,0,0,0,0,0,0,0,0,0,0,0,0,0,0,0,0,0,0,0,0,0,0,0,0,0,0,0,0,0,0,0,0,0,0,0,0,0,0,0,0,0,0,0,0,0,0,0,0,0,0,0,0,0,0,0,0,0],"trees":[{"base_weights":[3.938692E3,1.6235204E3,8.1732373E3,1.0571084E3,3.0779216E3,5.990999E3,1.3243444E4,7.8816064E2,1.695941E3,3.635653E3,2.300025E3,4.8915195E3,7.732472E3,1.1359811E4,1.5473705E4,6.998448E2,9.727909E2,1.4920688E3,2.0356318E3,3.2363828E3,4.481514E3,1.9340121E3,2.4743254E3,4.228029E3,5.5365596E3,7.0165605E3,8.704903E3,1.0520491E4,1.2404676E4,1.5885474E4,2.3471968E3,6.0493945E2,7.5350885E2,8.1552313E2,1.156667E3,3.2213083E3,1.4231141E3,1.9084869E3,2.3465225E3,2.9879868E3,3.5365776E3,4.254063E3,5.504857E3,1.5115436E3,2.020059E3,2.346541E3,2.6129604E3,3.6310325E3,4.4931147E3,5.212878E3,5.922702E3,6.639885E3,7.4154214E3,8.249759E3,9.108998E3,1.0053487E4,1.0977731E4,1.18906045E4,1.2852107E4,1.4672655E4,1.7338748E4,6.3075E2,2.3652917E3,5.643418E2,6.361569E2,5.7738947E2,8.026868E2,7.094757E2,8.967485E2,1.0787262E3,1.325412E3,2.9381855E3,3.8764866E3,1.2194003E3,1.6259803E3,1.836113E3,2.0099326E3,2.2344722E3,2.5217842E3,2.8661382E3,3.1228171E3,3.3960674E3,3.6939744E3,4.0674592E3,4.526747E3,5.2310386E3,6.8170513E3,1.2080603E3,1.6514608E3,1.8858402E3,2.0997297E3,3.1697605E3,3.8056372E3,4.284592E3,4.682332E3,5.0423086E3,5.37672E3,5.729938E3,6.10179E3,1.3998005E4,1.5341085E4,1.6648023E4,1.8029303E4],"categories":[],"categories_nodes":[],"categories_segments":[],"categories_sizes":[],"default_left":[1,1,1,1,1,1,1,1,1,1,1,1,1,1,1,1,1,1,1,1,1,1,1,1,1,1,1,1,1,1,1,1,1,1,1,1,1,1,1,1,1,1,1,1,1,0,0,1,1,1,1,0,0,0,0,0,0,0,0,1,1,0,0,0,0,0,0,0,0,0,0,0,0,0,0,0,0,0,0,0,0,0,0,0,0,0,0,0,0,0,0,0,0,0,0,0,0,0,0,0,0,0,0],"id":0,"left_children":[1,3,5,7,9,11,13,15,17,19,21,23,25,27,29,31,33,35,37,39,41,43,45,47,49,51,53,55,57,59,61,63,65,67,69,71,73,75,77,79,81,83,85,87,89,-1,-1,91,93,95,97,-1,-1,-1,-1,-1,-1,-1,-1,99,101,-1,-1,-1,-1,-1,-1,-1,-1,-1,-1,-1,-1,-1,-1,-1,-1,-1,-1,-1,-1,-1,-1,-1,-1,-1,-1,-1,-1,-1,-1,-1,-1,-1,-1,-1,-1,-1,-1,-1,-1,-1,-1],"loss_changes":[3.966052E11,2.1544632E10,1.5814158E11,3.2333804E9,3.1722455E9,1.9107414E10,1.7896899E10,2.1538765E8,3.83189E8,1.4269153E9,1.9068518E8,2.60096E9,2.6317292E9,1.9181076E9,1.0594517E10,4.5213184E7,1.229696E8,4.1144115E8,7.809638E7,2.0590182E8,2.9453517E8,3.3044224E7,3.057664E7,4.627292E8,3.5733504E8,2.8625306E8,2.2575514E8,1.6767386E8,8.524595E7,3.1067996E9,4.02688E5,3.752192E6,4.911309E7,1.9287424E7,2.4519424E7,1.3281152E7,1.367511E8,7.23456E6,6.187264E6,1.72544E7,1.6405504E7,3.867853E7,5.236941E7,5.30848E6,4.830464E6,0E0,0E0,6.332416E7,6.2480384E7,2.0344832E7,1.368064E7,0E0,0E0,0E0,0E0,0E0,0E0,0E0,0E0,2.5695027E8,1.1101798E8,0E0,0E0,0E0,0E0,0E0,0E0,0E0,0E0,0E0,0E0,0E0,0E0,0E0,0E0,0E0,0E0,0E0,0E0,0E0,0E0,0E0,0E0,0E0,0E0,0E0,0E0,0E0,0E0,0E0,0E0,0E0,0E0,0E0,0E0,0E0,0E0,0E0,0E0,0E0,0E0,0E0,0E0],"parents":[2147483647,0,0,1,1,2,2,3,3,4,4,5,5,6,6,7,7,8,8,9,9,10,10,11,11,12,12,13,13,14,14,15,15,16,16,17,17,18,18,19,19,20,20,21,21,22,22,23,23,24,24,25,25,26,26,27,27,28,28,29,29,30,30,31,31,32,32,33,33,34,34,35,35,36,36,37,37,38,38,39,39,40,40,41,41,42,42,43,43,44,44,47,47,48,48,49,49,50,50,59,59,60,60],"right_children":[2,4,6,8,10,12,14,16,18,20,22,24,26,28,30,32,34,36,38,40,42,44,46,48,50,52,54,56,58,60,62,64,66,68,70,72,74,76,78,80,82,84,86,88,90,-1,-1,92,94,96,98,-1,-1,-1,-1,-1,-1,-1,-1,100,102,-1,-1,-1,-1,-1,-1,-1,-1,-1,-1,-1,-1,-1,-1,-1,-1,-1,-1,-1,-1,-1,-1,-1,-1,-1,-1,-1,-1,-1,-1,-1,-1,-1,-1,-1,-1,-1,-1,-1,-1,-1,-1],"split_conditions":[9.95E-1,5.535E0,2.15205E4,4.995E0,2.79095E4,1.5782E4,2.49495E4,4.625E0,4.63975E4,5.5745E3,5.008E4,1.08935E4,1.9091E4,2.347E4,3.48345E4,2.99705E4,3.75195E4,2.28895E4,4.9548E4,2.8045E3,1.0888E4,4.6404E4,5.2209E4,6.5075E3,1.36115E4,1.7493E4,2.025E4,2.2487E4,2.41875E4,2.64605E4,4.37125E4,2.0043E4,4.295E0,3.27885E4,4.12805E4,3.5325E3,4.35155E4,4.8035E4,5.14815E4,1.5155E3,4.152E3,7.836E3,1.49655E4,4.36235E4,4.8584E4,7.0396234E2,7.838882E2,3.9025E3,8.876E3,1.22775E4,1.46575E4,1.9919655E3,2.2246265E3,2.4749277E3,2.7326995E3,3.0160464E3,3.2933196E3,3.5671814E3,3.8556323E3,2.5741E4,2.7136E4,1.89225E2,7.095875E2,1.6930255E2,1.9084708E2,1.7321684E2,2.4080606E2,2.1284273E2,2.6902457E2,3.2361786E2,3.9762363E2,8.814557E2,1.162946E3,3.658201E2,4.8779413E2,5.508339E2,6.029798E2,6.703417E2,7.565353E2,8.598415E2,9.3684515E2,1.01882025E3,1.1081924E3,1.2202378E3,1.3580242E3,1.5693116E3,2.0451155E3,3.624181E2,4.9543826E2,5.657521E2,6.2991895E2,9.5092816E2,1.1416912E3,1.2853776E3,1.4046997E3,1.5126926E3,1.6130161E3,1.7189814E3,1.8305371E3,4.199402E3,4.6023257E3,4.994407E3,5.408791E3],"split_indices":[1,8,0,8,0,0,0,7,0,0,0,0,0,0,0,0,0,0,0,0,0,0,0,0,0,0,0,0,0,0,0,0,7,0,0,0,0,0,0,0,0,0,0,0,0,0,0,0,0,0,0,0,0,0,0,0,0,0,0,0,0,0,0,0,0,0,0,0,0,0,0,0,0,0,0,0,0,0,0,0,0,0,0,0,0,0,0,0,0,0,0,0,0,0,0,0,0,0,0,0,0,0,0],"split_type":[0,0,0,0,0,0,0,0,0,0,0,0,0,0,0,0,0,0,0,0,0,0,0,0,0,0,0,0,0,0,0,0,0,0,0,0,0,0,0,0,0,0,0,0,0,0,0,0,0,0,0,0,0,0,0,0,0,0,0,0,0,0,0,0,0,0,0,0,0,0,0,0,0,0,0,0,0,0,0,0,0,0,0,0,0,0,0,0,0,0,0,0,0,0,0,0,0,0,0,0,0,0,0],"sum_hessian":[4.0455E4,2.6156E4,1.4299E4,1.8826E4,7.33E3,9.998E3,4.301E3,1.325E4,5.576E3,4.267E3,3.063E3,6.131E3,3.867E3,2.335E3,1.966E3,8.966E3,4.284E3,3.488E3,2.088E3,2.902E3,1.365E3,9.92E2,2.071E3,3.026E3,3.105E3,2.232E3,1.635E3,1.301E3,1.034E3,1.906E3,6E1,3.243E3,5.723E3,2.312E3,1.972E3,1.32E2,3.356E3,1.487E3,6.01E2,1.594E3,1.308E3,1.121E3,2.44E2,1.71E2,8.21E2,1.087E3,9.84E2,9.35E2,2.091E3,1.697E3,1.408E3,1.157E3,1.075E3,7.79E2,8.56E2,6.55E2,6.46E2,4.94E2,5.4E2,1.045E3,8.61E2,1E0,5.9E1,1.418E3,1.825E3,1.252E3,4.471E3,1.007E3,1.305E3,1.354E3,6.18E2,9.6E1,3.6E1,1.678E3,1.678E3,8.79E2,6.08E2,3.75E2,2.26E2,8.49E2,7.45E2,7.03E2,6.05E2,6.75E2,4.46E2,2.06E2,3.8E1,5.7E1,1.14E2,3.15E2,5.06E2,2.62E2,6.73E2,1.006E3,1.085E3,8.47E2,8.5E2,6.94E2,7.14E2,5.31E2,5.14E2,4.43E2,4.18E2],"tree_param":{"num_deleted":"0","num_feature":"10","num_nodes":"103","size_leaf_vector":"0"}},{"base_weights":[2.7589587E3,1.1372715E3,5.7250923E3,7.403719E2,2.1564082E3,4.1471855E3,9.175026E3,5.513438E2,1.1892571E3,2.5473274E3,1.6111732E3,3.3866543E3,5.290806E3,7.784342E3,1.0750652E4,4.8763226E2,6.763774E2,1.02104034E3,1.3955077E3,2.290732E3,3.206024E3,1.3935339E3,1.7591675E3,2.8953066E3,3.7834875E3,4.7653247E3,5.9083804E3,7.142671E3,8.439036E3,1.1017146E4,1.6577723E3,6.783012E2,4.704146E2,5.3793646E2,7.9050714E2,2.2925862E3,9.623457E2,1.3001782E3,1.6116079E3,2.1159692E3,2.5397854E3,3.0755566E3,4.2236943E3,1.1405275E3,1.4688252E3,1.692119E3,1.8741707E3,2.4421687E3,3.0557363E3,3.5529521E3,4.0481587E3,4.4992837E3,4.9944556E3,5.555121E3,6.2005073E3,6.8274517E3,7.4155684E3,8.050089E3,8.786732E3,9.998659E3,1.1991659E4,1.18795E3,1.7373743E3,5.4118494E2,7.417288E2,3.5912955E2,5.0232568E2,4.5183212E2,5.7958014E2,7.2237305E2,9.128201E2,1.9966704E3,2.6188335E3,7.7379645E2,1.0659579E3,1.2531052E3,1.3650999E3,1.514601E3,1.7360222E3,2.0241533E3,2.2416638E3,2.442315E3,2.6547493E3,2.9420203E3,3.3492744E3,3.9703489E3,5.0712593E3,8.593171E2,1.213228E3,1.3876337E3,1.5257341E3,2.0532227E3,2.537454E3,2.8802341E3,3.1687861E3,3.4361006E3,3.6645708E3,3.907874E3,4.168755E3,9.503286E3,1.0383884E4,1.1357868E4,1.2504175E4],"categories":[],"categories_nodes":[],"categories_segments":[],"categories_sizes":[],"default_left":[1,1,1,1,1,1,1,1,1,1,1,1,1,1,1,1,1,1,1,1,1,1,1,1,1,1,1,1,1,1,1,1,1,1,1,1,1,1,1,1,1,1,1,1,1,0,0,1,1,1,1,0,0,0,0,0,0,0,0,1,1,0,0,0,0,0,0,0,0,0,0,0,0,0,0,0,0,0,0,0,0,0,0,0,0,0,0,0,0,0,0,0,0,0,0,0,0,0,0,0,0,0,0],"id":1,"left_children":[1,3,5,7,9,11,13,15,17,19,21,23,25,27,29,31,33,35,37,39,41,43,45,47,49,51,53,55,57,59,61,63,65,67,69,71,73,75,77,79,81,83,85,87,89,-1,-1,91,93,95,97,-1,-1,-1,-1,-1,-1,-1,-1,99,101,-1,-1,-1,-1,-1,-1,-1,-1,-1,-1,-1,-1,-1,-1,-1,-1,-1,-1,-1,-1,-1,-1,-1,-1,-1,-1,-1,-1,-1,-1,-1,-1,-1,-1,-1,-1,-1,-1,-1,-1,-1,-1],"loss_changes":[1.945926E11,1.0578776E10,7.78065E10,1.5968502E9,1.558444E9,8.5179105E9,9.748218E9,1.0522086E8,1.9210342E8,7.14027E8,9.623859E7,1.1388682E9,1.2433326E9,9.42506E8,5.072896E9,2.8508032E7,7.020173E7,2.273646E8,4.9468416E7,1.2846592E8,1.455401E8,2.2040832E7,1.086208E7,1.8438554E8,1.8446746E8,1.0688512E8,1.5100314E8,5.3633024E7,8.830157E7,1.9058524E9,2.17408E5,5.903872E6,2.8431744E7,6.991936E6,1.9741568E7,7.80416E6,5.665024E7,3.613184E6,6.567168E6,1.6386048E7,7.668736E6,2.8964864E7,8.423936E6,4.88624E6,2.300032E6,0E0,0E0,2.0547072E7,2.9462528E7,1.0233856E7,9.254912E6,0E0,0E0,0E0,0E0,0E0,0E0,0E0,0E0,9.291366E7,1.9514982E8,0E0,0E0,0E0,0E0,0E0,0E0,0E0,0E0,0E0,0E0,0E0,0E0,0E0,0E0,0E0,0E0,0E0,0E0,0E0,0E0,0E0,0E0,0E0,0E0,0E0,0E0,0E0,0E0,0E0,0E0,0E0,0E0,0E0,0E0,0E0,0E0,0E0,0E0,0E0,0E0,0E0,0E0],"parents":[2147483647,0,0,1,1,2,2,3,3,4,4,5,5,6,6,7,7,8,8,9,9,10,10,11,11,12,12,13,13,14,14,15,15,16,16,17,17,18,18,19,19,20,20,21,21,22,22,23,23,24,24,25,25,26,26,27,27,28,28,29,29,30,30,31,31,32,32,33,33,34,34,35,35,36,36,37,37,38,38,39,39,40,40,41,41,42,42,43,43,44,44,47,47,48,48,49,49,50,50,59,59,60,60],"right_children":[2,4,6,8,10,12,14,16,18,20,22,24,26,28,30,32,34,36,38,40,42,44,46,48,50,52,54,56,58,60,62,64,66,68,70,72,74,76,78,80,82,84,86,88,90,-1,-1,92,94,96,98,-1,-1,-1,-1,-1,-1,-1,-1,100,102,-1,-1,-1,-1,-1,-1,-1,-1,-1,-1,-1,-1,-1,-1,-1,-1,-1,-1,-1,-1,-1,-1,-1,-1,-1,-1,-1,-1,-1,-1,-1,-1,-1,-1,-1,-1,-1,-1,-1,-1,-1,-1],"split_conditions":[9.95E-1,5.535E0,2.12465E4,4.75E-1,2.79095E4,1.541E4,2.47685E4,4.605E0,4.5691E4,6.0805E3,5.05865E4,1.02325E4,1.855E4,2.30535E4,3.48345E4,1.5E0,3.62005E4,1.71295E4,4.90785E4,3.2125E3,1.2296E4,4.75375E4,5.27915E4,5.738E3,1.3079E4,1.68905E4,1.9786E4,2.21135E4,2.38905E4,2.6211E4,4.98365E4,3.49255E4,3.5E0,3.04125E4,4.06105E4,2.389E3,4.2195E4,4.74795E4,5.07385E4,1.8705E3,4.6005E3,8.9775E3,1.6433E4,4.39495E4,4.9257E4,5.076357E2,5.622512E2,2.7225E3,7.8885E3,1.1692E4,1.41955E4,1.3497852E3,1.4983367E3,1.6665364E3,1.8601522E3,2.0482356E3,2.2246707E3,2.4150269E3,2.6360198E3,2.54145E4,2.69145E4,3.56385E2,5.212123E2,1.6235548E2,2.2251866E2,1.0773887E2,1.5069771E2,1.3554964E2,1.7387405E2,2.1671193E2,2.7384604E2,5.9900116E2,7.856501E2,2.3213895E2,3.1978738E2,3.7593158E2,4.0952997E2,4.543803E2,5.208067E2,6.0724603E2,6.7249915E2,7.326945E2,7.964248E2,8.8260614E2,1.00478235E3,1.1911047E3,1.5213778E3,2.5779514E2,3.639684E2,4.1629013E2,4.5772025E2,6.159668E2,7.6123627E2,8.6407025E2,9.5063586E2,1.0308302E3,1.0993713E3,1.1723623E3,1.2506265E3,2.8509858E3,3.1151653E3,3.4073606E3,3.7512527E3],"split_indices":[1,8,0,1,0,0,0,7,0,0,0,0,0,0,0,4,0,0,0,0,0,0,0,0,0,0,0,0,0,0,0,0,4,0,0,0,0,0,0,0,0,0,0,0,0,0,0,0,0,0,0,0,0,0,0,0,0,0,0,0,0,0,0,0,0,0,0,0,0,0,0,0,0,0,0,0,0,0,0,0,0,0,0,0,0,0,0,0,0,0,0,0,0,0,0,0,0,0,0,0,0,0,0],"split_type":[0,0,0,0,0,0,0,0,0,0,0,0,0,0,0,0,0,0,0,0,0,0,0,0,0,0,0,0,0,0,0,0,0,0,0,0,0,0,0,0,0,0,0,0,0,0,0,0,0,0,0,0,0,0,0,0,0,0,0,0,0,0,0,0,0,0,0,0,0,0,0,0,0,0,0,0,0,0,0,0,0,0,0,0,0,0,0,0,0,0,0,0,0,0,0,0,0,0,0,0,0,0,0],"sum_hessian":[4.0455E4,2.6156E4,1.4299E4,1.8826E4,7.33E3,9.813E3,4.486E3,1.3249E4,5.577E3,4.267E3,3.063E3,5.896E3,3.917E3,2.386E3,2.1E3,8.78E3,4.469E3,3.075E3,2.502E3,3.074E3,1.193E3,1.244E3,1.819E3,2.638E3,3.258E3,2.121E3,1.796E3,1.211E3,1.175E3,2.04E3,6E1,7.24E2,8.056E3,2.022E3,2.447E3,1.34E2,2.941E3,1.741E3,7.61E2,1.812E3,1.262E3,1.061E3,1.32E2,2.89E2,9.55E2,1.159E3,6.6E2,6.94E2,1.944E3,1.749E3,1.509E3,9.91E2,1.13E3,8.22E2,9.74E2,5.74E2,6.37E2,5.66E2,6.09E2,1.003E3,1.037E3,1.1E1,4.9E1,2.32E2,4.92E2,1.798E3,6.258E3,6.63E2,1.359E3,1.576E3,8.71E2,7.4E1,6E1,1.046E3,1.895E3,1.021E3,7.2E2,4.35E2,3.26E2,1.057E3,7.55E2,6.95E2,5.67E2,7.21E2,3.4E2,1.06E2,2.6E1,6.2E1,2.27E2,4.04E2,5.51E2,1.41E2,5.53E2,7.72E2,1.172E3,8.7E2,8.79E2,7.13E2,7.96E2,4.5E2,5.53E2,4.74E2,5.63E2],"tree_param":{"num_deleted":"0","num_feature":"10","num_nodes":"103","size_leaf_vector":"0"}},{"base_weights":[1.9325703E3,7.9666785E2,4.0101833E3,5.087834E2,1.4867917E3,2.874248E3,6.3676875E3,3.8239468E2,8.1332513E2,1.7837181E3,1.1098387E3,2.3488235E3,3.6308284E3,5.357937E3,7.4854204E3,3.071154E2,4.3944177E2,6.6126263E2,9.466384E2,1.6160902E3,2.2934397E3,8.9505237E2,1.1995276E3,1.9944685E3,2.6028748E3,3.2604448E3,4.0381118E3,4.9180864E3,5.8105493E3,7.661475E3,1.1748274E3,2.1012129E2,3.355921E2,3.4490915E2,5.1327783E2,1.6013398E3,6.231563E2,8.8825287E2,1.1126213E3,1.4903265E3,1.8080444E3,2.2054502E3,3.1667898E3,6.246349E2,9.433108E2,1.1135283E3,1.2765535E3,1.644671E3,2.0935774E3,2.4490027E3,2.786854E3,3.0746208E3,3.4019915E3,3.8126584E3,4.2454565E3,4.7155894E3,5.1009683E3,5.5475703E3,6.0460063E3,6.8953755E3,8.351851E3,1.026694E3,1.360421E3,1.6342052E2,2.4858276E2,3.7219318E2,2.3049672E2,2.9425757E2,3.7267566E2,5.3550635E2,3.8726575E2,-2.074964E2,1.6221268E3,4.6318207E2,6.821321E2,8.6023395E2,9.382977E2,1.0704298E3,1.2990345E3,1.3698328E3,1.5489807E3,1.7400073E3,1.8885779E3,2.1094507E3,2.4165933E3,2.9953042E3,3.9450063E3,4.659961E2,6.8730817E2,8.7171704E2,9.8956177E2,1.0865266E3,1.1586467E3,1.2376863E3,1.3479894E3,1.346814E3,1.7000016E3,1.9692853E3,2.1720078E3,2.3716465E3,2.5271736E3,2.7008904E3,2.8693357E3,6.5713433E3,7.1551377E3,8.0675767E3,9.081168E3],"categories":[],"categories_nodes":[],"categories_segments":[],"categories_sizes":[],"default_left":[1,1,1,1,1,1,1,1,1,1,1,1,1,1,1,1,1,1,1,1,1,1,1,1,1,1,1,1,1,1,1,1,1,1,1,1,1,1,1,1,1,1,1,1,1,1,1,1,1,1,1,0,0,0,0,0,0,0,0,1,1,0,0,0,0,0,0,0,0,0,0,0,0,0,0,0,0,0,0,0,0,0,0,0,0,0,0,0,0,0,0,0,0,0,0,0,0,0,0,0,0,0,0,0,0,0,0],"id":2,"left_children":[1,3,5,7,9,11,13,15,17,19,21,23,25,27,29,31,33,35,37,39,41,43,45,47,49,51,53,55,57,59,61,63,65,67,69,71,73,75,77,79,81,83,85,87,89,91,93,95,97,99,101,-1,-1,-1,-1,-1,-1,-1,-1,103,105,-1,-1,-1,-1,-1,-1,-1,-1,-1,-1,-1,-1,-1,-1,-1,-1,-1,-1,-1,-1,-1,-1,-1,-1,-1,-1,-1,-1,-1,-1,-1,-1,-1,-1,-1,-1,-1,-1,-1,-1,-1,-1,-1,-1,-1,-1],"loss_changes":[9.547158E10,5.1960095E9,3.827671E10,7.10187E8,8.5974835E8,3.828392E9,5.206917E9,5.589504E7,1.0910618E8,3.6412826E8,6.432717E7,5.0785894E8,5.832991E8,4.5837517E8,2.4396677E9,1.5474464E7,5.161395E7,8.97056E7,2.6941184E7,7.559475E7,7.470285E7,1.2512896E7,1.4423808E7,7.920538E7,8.704819E7,4.414669E7,7.164928E7,2.212864E7,4.076749E7,1.0763633E9,2.8032E5,2.258488E6,1.6643104E7,4.47104E6,1.1456256E7,4.021392E6,2.2657408E7,2.189312E6,4.476736E6,1.176576E7,3.721728E6,1.4543872E7,8.61568E5,1.220788E6,1.951936E6,1.27616E5,1.816064E6,6.461568E6,1.3796352E7,4.975616E6,2.90816E6,0E0,0E0,0E0,0E0,0E0,0E0,0E0,0E0,3.900211E7,1.5956378E8,0E0,0E0,0E0,0E0,0E0,0E0,0E0,0E0,0E0,0E0,0E0,0E0,0E0,0E0,0E0,0E0,0E0,0E0,0E0,0E0,0E0,0E0,0E0,0E0,0E0,0E0,0E0,0E0,0E0,0E0,0E0,0E0,0E0,0E0,0E0,0E0,0E0,0E0,0E0,0E0,0E0,0E0,0E0,0E0,0E0,0E0],"parents":[2147483647,0,0,1,1,2,2,3,3,4,4,5,5,6,6,7,7,8,8,9,9,10,10,11,11,12,12,13,13,14,14,15,15,16,16,17,17,18,18,19,19,20,20,21,21,22,22,23,23,24,24,25,25,26,26,27,27,28,28,29,29,30,30,31,31,32,32,33,33,34,34,35,35,36,36,37,37,38,38,39,39,40,40,41,41,42,42,43,43,44,44,45,45,46,46,47,47,48,48,49,49,50,50,59,59,60,60],"right_children":[2,4,6,8,10,12,14,16,18,20,22,24,26,28,30,32,34,36,38,40,42,44,46,48,50,52,54,56,58,60,62,64,66,68,70,72,74,76,78,80,82,84,86,88,90,92,94,96,98,100,102,-1,-1,-1,-1,-1,-1,-1,-1,104,106,-1,-1,-1,-1,-1,-1,-1,-1,-1,-1,-1,-1,-1,-1,-1,-1,-1,-1,-1,-1,-1,-1,-1,-1,-1,-1,-1,-1,-1,-1,-1,-1,-1,-1,-1,-1,-1,-1,-1,-1,-1,-1,-1,-1,-1,-1],"split_conditions":[9.95E-1,6.05E-1,2.09995E4,4.5499998E-1,2.88635E4,1.51045E4,2.4604E4,4.4049997E0,4.4696E4,6.4835E3,4.9557E4,9.728E3,1.8191E4,2.2848E4,3.48345E4,4.245E0,3.40465E4,1.4368E4,4.8741E4,3.4805E3,1.3166E4,4.4699E4,5.17965E4,5.171E3,1.27895E4,1.6473E4,1.95385E4,2.1909E4,2.37395E4,2.6099E4,5.187E4,5.5E0,3.5E0,2.89805E4,3.5E0,5E-1,4.0848E4,4.7104E4,5.2088E4,1.17E3,4.8935E3,9.578E3,1.75675E4,4.1207E4,4.7822E4,5.10905E4,5.32075E4,1.979E3,7.3725E3,1.13585E4,1.39575E4,9.223863E2,1.0205975E3,1.1437976E3,1.273637E3,1.4146769E3,1.5302905E3,1.6642711E3,1.813802E3,2.52725E4,2.7279E4,3.080082E2,4.081263E2,4.9026157E1,7.457483E1,1.1165796E2,6.914902E1,8.8277275E1,1.11802704E2,1.6065192E2,1.16179726E2,-6.224892E1,4.8663806E2,1.3895462E2,2.0463963E2,2.580702E2,2.8148932E2,3.2112897E2,3.897104E2,4.1094986E2,4.6469424E2,5.220022E2,5.6657336E2,6.328352E2,7.24978E2,8.985913E2,1.183502E3,1.3979883E2,2.0619246E2,2.6151514E2,2.9686853E2,3.25958E2,3.4759402E2,3.713059E2,4.0439682E2,4.0404422E2,5.100005E2,5.907856E2,6.5160236E2,7.1149396E2,7.581521E2,8.1026715E2,8.608007E2,1.9714031E3,2.1465415E3,2.4202732E3,2.7243506E3],"split_indices":[1,1,0,1,0,0,0,7,0,0,0,0,0,0,0,7,0,0,0,0,0,0,0,0,0,0,0,0,0,0,0,4,3,0,3,4,0,0,0,0,0,0,0,0,0,0,0,0,0,0,0,0,0,0,0,0,0,0,0,0,0,0,0,0,0,0,0,0,0,0,0,0,0,0,0,0,0,0,0,0,0,0,0,0,0,0,0,0,0,0,0,0,0,0,0,0,0,0,0,0,0,0,0,0,0,0,0],"split_type":[0,0,0,0,0,0,0,0,0,0,0,0,0,0,0,0,0,0,0,0,0,0,0,0,0,0,0,0,0,0,0,0,0,0,0,0,0,0,0,0,0,0,0,0,0,0,0,0,0,0,0,0,0,0,0,0,0,0,0,0,0,0,0,0,0,0,0,0,0,0,0,0,0,0,0,0,0,0,0,0,0,0,0,0,0,0,0,0,0,0,0,0,0,0,0,0,0,0,0,0,0,0,0,0,0,0,0],"sum_hessian":[4.0455E4,2.6156E4,1.4299E4,1.8458E4,7.698E3,9.651E3,4.648E3,1.3046E4,5.412E3,4.304E3,3.394E3,5.698E3,3.953E3,2.445E3,2.203E3,5.627E3,7.419E3,2.531E3,2.881E3,3.242E3,1.062E3,1.003E3,2.391E3,2.383E3,3.315E3,2.075E3,1.878E3,1.246E3,1.199E3,2.143E3,6E1,1.279E3,4.348E3,3.256E3,4.163E3,9.7E1,2.434E3,2.136E3,7.45E2,1.964E3,1.278E3,9.68E2,9.4E1,1.54E2,8.49E2,1.137E3,1.254E3,5.3E2,1.853E3,1.813E3,1.502E3,9.07E2,1.168E3,9.09E2,9.69E2,6.04E2,6.42E2,5.78E2,6.21E2,1.021E3,1.122E3,3.7E1,2.3E1,5.8E2,6.99E2,3.223E3,1.125E3,1.157E3,2.099E3,3.536E3,6.27E2,1E0,9.6E1,6.58E2,1.776E3,1.381E3,7.55E2,6.13E2,1.32E2,6.51E2,1.313E3,7.05E2,5.73E2,6.73E2,2.95E2,8.1E1,1.3E1,4.6E1,1.08E2,3.41E2,5.08E2,7.27E2,4.1E2,8.24E2,4.3E2,8.7E1,4.43E2,7.27E2,1.126E3,9.27E2,8.86E2,7.52E2,7.5E2,4.66E2,5.55E2,8.16E2,3.06E2],"tree_param":{"num_deleted":"0","num_feature":"10","num_nodes":"107","size_leaf_vector":"0"}},{"base_weights":[1.3537042E3,5.580711E2,2.8089507E3,3.5630002E2,1.0417618E3,2.0007643E3,4.4380273E3,2.665483E2,5.673947E2,1.249858E3,7.775804E2,1.6366133E3,2.5139827E3,3.7071504E3,5.2166924E3,2.0451143E2,3.0571075E2,4.3998007E2,6.5224316E2,1.1384977E3,1.6356573E3,6.354711E2,8.4423425E2,1.3829744E3,1.8056716E3,2.253003E3,2.787298E3,3.412283E3,4.0152346E3,5.334077E3,8.3411914E2,1.8084703E2,2.2883073E2,3.2746158E2,1.2722163E2,1.1232476E3,4.0799136E2,6.2544794E2,8.4351025E2,1.0045659E3,1.2396334E3,1.5752883E3,2.3492573E3,4.6591843E2,6.750178E2,7.7854065E2,8.9044147E2,1.1207406E3,1.4476528E3,1.6996835E3,1.9325896E3,2.1275735E3,2.3451108E3,2.6396284E3,2.9299834E3,3.2842588E3,3.5342908E3,3.8517573E3,4.1744146E3,4.950145E3,6.091203E3,2.3813371E2,8.502858E2,1.4986442E1,1.8402684E2,2.3315027E2,2.3488758E1,1.2520463E2,3.3914468E2,9.13051E1,7.496152E2,9.8066223E2,1.7024789E3,2.756915E2,4.4105975E2,5.9364124E2,6.72267E2,8.151819E2,9.6662683E2,9.308613E2,1.0343928E3,1.1736416E3,1.3106613E3,1.5075056E3,1.7372677E3,2.223041E3,3.2217185E3,2.9878387E2,4.9668295E2,6.2984674E2,7.077764E2,8.670306E2,9.562481E2,8.838843E2,1.1523224E3,1.3616394E3,1.5019075E3,1.647897E3,1.7543116E3,1.8766279E3,1.989883E3,4.655602E3,5.251654E3,5.914317E3,6.5211436E3,6.9415955E2,9.243566E2],"categories":[],"categories_nodes":[],"categories_segments":[],"categories_sizes":[],"default_left":[1,1,1,1,1,1,1,1,1,1,1,1,1,1,1,1,1,1,1,1,1,1,1,1,1,1,1,1,1,1,1,1,1,1,1,1,1,1,1,1,1,1,1,1,1,0,1,1,1,1,1,0,0,0,0,0,0,0,0,1,1,0,1,0,0,0,0,0,0,0,0,0,0,0,0,0,0,0,0,0,0,0,0,0,0,0,0,0,0,0,0,0,0,0,0,0,0,0,0,0,0,0,0,0,0,0,0],"id":3,"left_children":[1,3,5,7,9,11,13,15,17,19,21,23,25,27,29,31,33,35,37,39,41,43,45,47,49,51,53,55,57,59,61,63,65,67,69,71,73,75,77,79,81,83,85,87,89,-1,91,93,95,97,99,-1,-1,-1,-1,-1,-1,-1,-1,101,103,-1,105,-1,-1,-1,-1,-1,-1,-1,-1,-1,-1,-1,-1,-1,-1,-1,-1,-1,-1,-1,-1,-1,-1,-1,-1,-1,-1,-1,-1,-1,-1,-1,-1,-1,-1,-1,-1,-1,-1,-1,-1,-1,-1,-1,-1],"loss_changes":[4.6840087E10,2.5524163E9,1.8818466E10,3.495749E8,4.2228224E8,1.7825464E9,2.6788086E9,3.1409344E7,5.9238016E7,1.8309274E8,3.1621376E7,2.3741542E8,2.7661312E8,2.0877722E8,1.1751793E9,2.845328E6,3.077984E7,4.7714176E7,1.6400384E7,4.404992E7,3.774157E7,6.9808E6,6.312704E6,3.640397E7,4.183245E7,1.8510848E7,3.2994304E7,8.04352E6,1.494016E7,6.1894656E8,3.8526E5,1.340544E6,2.18536E6,1.6678016E7,1.92456E7,6.424256E6,9.096448E6,3.921024E6,6.17568E5,2.211584E6,7.372288E6,7.152896E6,8.7664E5,9.26236E5,8.56416E5,0E0,1.247616E6,2.332672E6,6.331648E6,2.303488E6,1.136128E6,0E0,0E0,0E0,0E0,0E0,0E0,0E0,0E0,1.0761011E8,1.8243584E7,0E0,4.0652E4,0E0,0E0,0E0,0E0,0E0,0E0,0E0,0E0,0E0,0E0,0E0,0E0,0E0,0E0,0E0,0E0,0E0,0E0,0E0,0E0,0E0,0E0,0E0,0E0,0E0,0E0,0E0,0E0,0E0,0E0,0E0,0E0,0E0,0E0,0E0,0E0,0E0,0E0,0E0,0E0,0E0,0E0,0E0,0E0],"parents":[2147483647,0,0,1,1,2,2,3,3,4,4,5,5,6,6,7,7,8,8,9,9,10,10,11,11,12,12,13,13,14,14,15,15,16,16,17,17,18,18,19,19,20,20,21,21,22,22,23,23,24,24,25,25,26,26,27,27,28,28,29,29,30,30,31,31,32,32,33,33,34,34,35,35,36,36,37,37,38,38,39,39,40,40,41,41,42,42,43,43,44,44,46,46,47,47,48,48,49,49,50,50,59,59,60,60,62,62],"right_children":[2,4,6,8,10,12,14,16,18,20,22,24,26,28,30,32,34,36,38,40,42,44,46,48,50,52,54,56,58,60,62,64,66,68,70,72,74,76,78,80,82,84,86,88,90,-1,92,94,96,98,100,-1,-1,-1,-1,-1,-1,-1,-1,102,104,-1,106,-1,-1,-1,-1,-1,-1,-1,-1,-1,-1,-1,-1,-1,-1,-1,-1,-1,-1,-1,-1,-1,-1,-1,-1,-1,-1,-1,-1,-1,-1,-1,-1,-1,-1,-1,-1,-1,-1,-1,-1,-1,-1,-1,-1],"split_conditions":[9.95E-1,6.05E-1,2.08695E4,4.915E0,2.88635E4,1.49425E4,2.44935E4,3.16505E4,4.4044E4,6.8425E3,4.97525E4,9.4685E3,1.79705E4,2.2744E4,3.48345E4,2.83205E4,4.38605E4,1.6365E4,4.9912E4,2.498E3,1.38055E4,4.54905E4,5.16295E4,4.802E3,1.2603E4,1.62555E4,1.94165E4,2.18155E4,2.36365E4,2.6608E4,4.6883E4,6.05E1,3.159E4,2.9500002E-1,4.715E0,5.1255E3,3.95905E4,4.6987E4,5.2738E4,7.905E2,4.3735E3,1.00505E4,1.83825E4,4.0479E4,4.82505E4,2.3356221E2,5.3369E4,1.4935E3,7.126E3,1.11975E4,1.38275E4,6.382721E2,7.0353326E2,7.9188855E2,8.7899506E2,9.8527765E2,1.0602872E3,1.1555272E3,1.2523245E3,2.55775E4,2.74515E4,7.144012E1,5.12165E4,4.4959326E0,5.5208054E1,6.994508E1,7.0466275E0,3.756139E1,1.0174341E2,2.7391531E1,2.2488457E2,2.9419867E2,5.1074368E2,8.270745E1,1.3231793E2,1.7809238E2,2.0168011E2,2.4455458E2,2.8998807E2,2.7925842E2,3.1031787E2,3.520925E2,3.931984E2,4.522517E2,5.2118036E2,6.6691235E2,9.6651556E2,8.963516E1,1.490049E2,1.8895403E2,2.1233293E2,2.601092E2,2.8687445E2,2.6516528E2,3.4569672E2,4.0849185E2,4.5057227E2,4.943691E2,5.262935E2,5.629884E2,5.9696497E2,1.3966807E3,1.5754962E3,1.7742952E3,1.9563431E3,2.0824788E2,2.77307E2],"split_indices":[1,1,0,7,0,0,0,0,0,0,0,0,0,0,0,0,0,0,0,0,0,0,0,0,0,0,0,0,0,0,0,0,0,1,7,0,0,0,0,0,0,0,0,0,0,0,0,0,0,0,0,0,0,0,0,0,0,0,0,0,0,0,0,0,0,0,0,0,0,0,0,0,0,0,0,0,0,0,0,0,0,0,0,0,0,0,0,0,0,0,0,0,0,0,0,0,0,0,0,0,0,0,0,0,0,0,0],"split_type":[0,0,0,0,0,0,0,0,0,0,0,0,0,0,0,0,0,0,0,0,0,0,0,0,0,0,0,0,0,0,0,0,0,0,0,0,0,0,0,0,0,0,0,0,0,0,0,0,0,0,0,0,0,0,0,0,0,0,0,0,0,0,0,0,0,0,0,0,0,0,0,0,0,0,0,0,0,0,0,0,0,0,0,0,0,0,0,0,0,0,0,0,0,0,0,0,0,0,0,0,0,0,0,0,0,0,0],"sum_hessian":[4.0455E4,2.6156E4,1.4299E4,1.8458E4,7.698E3,9.559E3,4.74E3,1.2953E4,5.505E3,4.304E3,3.394E3,5.594E3,3.965E3,2.448E3,2.292E3,5.015E3,7.938E3,2.203E3,3.302E3,3.343E3,9.61E2,1.087E3,2.307E3,2.241E3,3.353E3,2.033E3,1.932E3,1.257E3,1.191E3,2.232E3,6E1,2.546E3,2.469E3,7.075E3,8.63E2,9.7E1,2.106E3,2.9E3,4.02E2,1.443E3,1.9E3,8.89E2,7.2E1,2.08E2,8.79E2,9.6E2,1.347E3,4.47E2,1.794E3,1.835E3,1.518E3,8.71E2,1.162E3,9.59E2,9.73E2,6.27E2,6.3E2,6E2,5.91E2,1.486E3,7.46E2,2E0,5.8E1,4.8E1,2.498E3,2.418E3,5.1E1,3.87E2,6.688E3,8.17E2,4.6E1,8E1,1.7E1,4.23E2,1.683E3,1.735E3,1.165E3,3.33E2,6.9E1,4.25E2,1.018E3,9.94E2,9.06E2,6.34E2,2.55E2,6.6E1,6E0,3.4E1,1.74E2,3.78E2,5.01E2,1.004E3,3.43E2,5.6E1,3.91E2,7.04E2,1.09E3,9.58E2,8.77E2,7.85E2,7.33E2,7.6E2,7.26E2,5.39E2,2.07E2,2.2E1,3.6E1],"tree_param":{"num_deleted":"0","num_feature":"10","num_nodes":"107","size_leaf_vector":"0"}},{"base_weights":[9.482406E2,3.909489E2,1.9675504E3,2.4954341E2,7.299297E2,1.3931207E3,3.0945818E3,1.8631412E2,3.968433E2,8.7581616E2,5.447247E2,1.1429872E3,1.7444657E3,2.6684033E3,3.7682397E3,1.6365614E2,2.4340242E2,3.1343433E2,4.6194687E2,8.0187335E2,1.1689506E3,4.6089877E2,6.019752E2,9.6242053E2,1.2577592E3,1.5648916E3,1.9284144E3,2.4343745E3,2.976204E3,3.8732842E3,5.930144E2,2.827788E2,1.502271E2,1.2484265E2,2.7156976E2,7.94487E2,2.93119E2,4.3011417E2,5.47218E2,7.3309265E2,9.0760547E2,1.1237886E3,1.698658E3,3.591334E2,4.9273398E2,5.723572E2,6.4520355E2,7.688878E2,1.0055285E3,1.1680885E3,1.332005E3,1.5033832E3,1.6519639E3,1.8333668E3,2.023236E3,2.3272778E3,2.5891648E3,2.8490388E3,3.137895E3,3.6044326E3,4.304693E3,5.164436E2,7.350949E2,2.2411601E2,3.7601672E2,1.1014228E2,1.8781015E2,7.468649E1,1.5881879E2,1.9374126E2,3.3048434E2,6.967419E2,1.288894E3,2.2967691E2,3.34324E2,5.9137384E2,4.2754416E2,5.07676E2,6.0855817E2,6.912718E2,7.9365E2,8.686047E2,9.475399E2,1.0917434E3,1.2997468E3,1.6002494E3,2.5791914E3,2.5420811E2,3.9407065E2,4.617606E2,5.1510547E2,5.4626666E2,5.883767E2,6.2892163E2,6.8687415E2,6.952499E2,8.273749E2,9.718544E2,1.0786211E3,1.1288976E3,1.1950709E3,1.2752018E3,1.3772877E3,1.9506265E3,2.0864258E3,3.4141257E3,3.7859868E3,4.195313E3,4.6574395E3,2.3569807E2,5.3160706E2],"categories":[],"categories_nodes":[],"categories_segments":[],"categories_sizes":[],"default_left":[1,1,1,1,1,1,1,1,1,1,1,1,1,1,1,1,1,1,1,1,1,1,1,1,1,1,1,1,1,1,1,1,1,1,1,1,1,1,1,1,1,1,1,1,1,1,1,1,1,1,1,0,0,0,1,0,0,0,0,1,1,1,0,0,0,0,0,0,0,0,0,0,0,0,0,0,0,0,0,0,0,0,0,0,0,0,0,0,0,0,0,0,0,0,0,0,0,0,0,0,0,0,0,0,0,0,0,0,0,0,0],"id":4,"left_children":[1,3,5,7,9,11,13,15,17,19,21,23,25,27,29,31,33,35,37,39,41,43,45,47,49,51,53,55,57,59,61,63,65,67,69,71,73,75,77,79,81,83,85,87,89,91,93,95,97,99,101,-1,-1,-1,103,-1,-1,-1,-1,105,107,109,-1,-1,-1,-1,-1,-1,-1,-1,-1,-1,-1,-1,-1,-1,-1,-1,-1,-1,-1,-1,-1,-1,-1,-1,-1,-1,-1,-1,-1,-1,-1,-1,-1,-1,-1,-1,-1,-1,-1,-1,-1,-1,-1,-1,-1,-1,-1,-1,-1],"loss_changes":[2.2980383E10,1.2536207E9,9.253511E9,1.7184704E8,2.075415E8,8.3061146E8,1.3757727E9,1.6668384E7,2.995488E7,9.237427E7,1.6015424E7,1.1353907E8,1.2706406E8,2.0597555E8,6.207529E8,1.4754768E7,1.221544E7,2.3544208E7,8.209152E6,2.4358656E7,1.8784128E7,4.30032E6,2.209344E6,1.7213952E7,2.0960768E7,8.217088E6,1.3784064E7,2.1941248E7,1.72544E7,1.9418522E8,2.83996E5,5.035272E6,1.2505952E7,1.191241E6,1.3522016E7,3.837916E6,6.029824E6,6.87936E5,1.733328E6,4.74432E6,1.282688E6,3.091904E6,1.591664E6,1.12054E6,4.89712E5,1.81792E5,1.1824E5,1.134608E6,3.283712E6,2.79296E5,2.984192E6,0E0,0E0,0E0,3.44064E5,0E0,0E0,0E0,0E0,2.5772032E7,7.044096E6,5.7755E4,0E0,0E0,0E0,0E0,0E0,0E0,0E0,0E0,0E0,0E0,0E0,0E0,0E0,0E0,0E0,0E0,0E0,0E0,0E0,0E0,0E0,0E0,0E0,0E0,0E0,0E0,0E0,0E0,0E0,0E0,0E0,0E0,0E0,0E0,0E0,0E0,0E0,0E0,0E0,0E0,0E0,0E0,0E0,0E0,0E0,0E0,0E0,0E0,0E0],"parents":[2147483647,0,0,1,1,2,2,3,3,4,4,5,5,6,6,7,7,8,8,9,9,10,10,11,11,12,12,13,13,14,14,15,15,16,16,17,17,18,18,19,19,20,20,21,21,22,22,23,23,24,24,25,25,26,26,27,27,28,28,29,29,30,30,31,31,32,32,33,33,34,34,35,35,36,36,37,37,38,38,39,39,40,40,41,41,42,42,43,43,44,44,45,45,46,46,47,47,48,48,49,49,50,50,54,54,59,59,60,60,61,61],"right_children":[2,4,6,8,10,12,14,16,18,20,22,24,26,28,30,32,34,36,38,40,42,44,46,48,50,52,54,56,58,60,62,64,66,68,70,72,74,76,78,80,82,84,86,88,90,92,94,96,98,100,102,-1,-1,-1,104,-1,-1,-1,-1,106,108,110,-1,-1,-1,-1,-1,-1,-1,-1,-1,-1,-1,-1,-1,-1,-1,-1,-1,-1,-1,-1,-1,-1,-1,-1,-1,-1,-1,-1,-1,-1,-1,-1,-1,-1,-1,-1,-1,-1,-1,-1,-1,-1,-1,-1,-1,-1,-1,-1,-1],"split_conditions":[9.95E-1,6.05E-1,2.07525E4,4.9049997E0,2.88635E4,1.48565E4,2.51065E4,5.5E0,4.4324E4,7.139E3,5.03665E4,9.2895E3,1.78385E4,2.32335E4,3.48345E4,1.5E0,2.9500002E-1,1.53635E4,4.84885E4,3.6855E3,1.4159E4,4.6807E4,5.25455E4,4.5745E3,1.20045E4,1.66235E4,1.92855E4,2.22365E4,2.4307E4,2.67515E4,5.27665E4,3.79755E4,4.455E0,2.45E-1,3.48095E4,5.69E3,4.14185E4,4.75E-1,5.03695E4,2.1555E3,5.1755E3,1.1491E4,1.92575E4,4.2669E4,4.89395E4,5.1293E4,5.3568E4,3.155E3,8.1815E3,1.0522E4,1.32765E4,4.5101498E2,4.9558917E2,5.500101E2,1.99595E4,6.9818335E2,7.7674945E2,8.547117E2,9.413685E2,2.5909E4,2.75265E4,4.84335E4,2.2052849E2,6.723481E1,1.1280502E2,3.3042686E1,5.634305E1,2.2405949E1,4.7645638E1,5.812238E1,9.914531E1,2.0902257E2,3.8666824E2,6.8903076E1,1.002972E2,1.7741216E2,1.2826326E2,1.5230281E2,1.8256746E2,2.0738155E2,2.3809502E2,2.6058142E2,2.84262E2,3.2752304E2,3.8992407E2,4.8007483E2,7.7375745E2,7.6262436E1,1.182212E2,1.3852818E2,1.5453165E2,1.6388E2,1.7651302E2,1.886765E2,2.0606226E2,2.0857497E2,2.4821248E2,2.9155634E2,3.2358633E2,3.3866928E2,3.585213E2,3.8256055E2,4.1318634E2,5.85188E2,6.2592773E2,1.0242378E3,1.1357961E3,1.258594E3,1.3972319E3,7.070943E1,1.5948212E2],"split_indices":[1,1,0,7,0,0,0,4,0,0,0,0,0,0,0,4,1,0,0,0,0,0,0,0,0,0,0,0,0,0,0,0,7,1,0,0,0,1,0,0,0,0,0,0,0,0,0,0,0,0,0,0,0,0,0,0,0,0,0,0,0,0,0,0,0,0,0,0,0,0,0,0,0,0,0,0,0,0,0,0,0,0,0,0,0,0,0,0,0,0,0,0,0,0,0,0,0,0,0,0,0,0,0,0,0,0,0,0,0,0,0],"split_type":[0,0,0,0,0,0,0,0,0,0,0,0,0,0,0,0,0,0,0,0,0,0,0,0,0,0,0,0,0,0,0,0,0,0,0,0,0,0,0,0,0,0,0,0,0,0,0,0,0,0,0,0,0,0,0,0,0,0,0,0,0,0,0,0,0,0,0,0,0,0,0,0,0,0,0,0,0,0,0,0,0,0,0,0,0,0,0,0,0,0,0,0,0,0,0,0,0,0,0,0,0,0,0,0,0,0,0,0,0,0,0],"sum_hessian":[4.0455E4,2.6156E4,1.4299E4,1.8458E4,7.698E3,9.473E3,4.826E3,1.2916E4,5.542E3,4.304E3,3.394E3,5.536E3,3.937E3,2.959E3,1.867E3,9.249E3,3.667E3,2.432E3,3.11E3,3.44E3,8.64E2,1.381E3,2.013E3,2.155E3,3.381E3,1.997E3,1.94E3,1.686E3,1.273E3,1.807E3,6E1,9.35E2,8.314E3,7.05E2,2.962E3,9.7E1,2.335E3,2.269E3,8.41E2,2.089E3,1.351E3,7.99E2,6.5E1,3.32E2,1.049E3,1.203E3,8.1E2,3.96E2,1.759E3,1.539E3,1.842E3,1.181E3,8.16E2,9.79E2,9.61E2,1.006E3,6.8E2,7.23E2,5.5E2,1.119E3,6.88E2,4.2E1,1.8E1,5.76E2,3.59E2,4.025E3,4.289E3,2.86E2,4.19E2,1.278E3,1.684E3,8.3E1,1.4E1,9.22E2,1.413E3,3.2E1,2.237E3,5.17E2,3.24E2,1.243E3,8.46E2,6.95E2,6.56E2,6.82E2,1.17E2,6.1E1,4E0,8.5E1,2.47E2,4.49E2,6E2,4.71E2,7.32E2,5.94E2,2.16E2,1.81E2,2.15E2,1.214E3,5.45E2,6.45E2,8.94E2,8.3E2,1.012E3,4.62E2,4.99E2,5.56E2,5.63E2,5.35E2,1.53E2,3E0,3.9E1],"tree_param":{"num_deleted":"0","num_feature":"10","num_nodes":"111","size_leaf_vector":"0"}},{"base_weights":[6.6426025E2,2.738969E2,1.3782511E3,1.7478343E2,5.114943E2,1.0158491E3,2.2571838E3,1.3045834E2,2.7804382E2,6.137593E2,3.816674E2,8.294042E2,1.32803E3,1.9516779E3,2.6504873E3,1.4757779E2,7.151061E1,2.2789345E2,3.3390704E2,5.635681E2,8.3094934E2,3.237648E2,4.2233615E2,7.028102E2,9.317722E2,1.1793126E3,1.4685587E3,1.8319706E3,2.1736545E3,2.7261152E3,4.224989E2,1.2066615E2,1.8452713E2,8.816694E1,-2.631754E1,5.622195E2,2.1622319E2,3.196685E2,4.229795E2,5.1442316E2,6.396006E2,8.064298E2,1.3988151E3,2.3502655E2,3.4239688E2,4.0659085E2,4.6378546E2,5.848841E2,7.4757275E2,8.670084E2,9.9401135E2,1.1092554E3,1.2277349E3,1.3862021E3,1.5881769E3,1.724794E3,1.908739E3,2.5416807E3,3.028004E3,3.6286768E2,5.188028E2,8.62739E1,1.3285538E2,6.8474365E1,2.0597015E2,6.6036865E1,1.366658E2,-3.6516766E1,2.7498248E2,3.279998E2,7.1148334E2,1.0074253E2,2.3076765E2,3.0503302E2,3.4589853E2,4.045009E2,5.216866E2,4.823497E2,5.5485626E2,6.117244E2,6.6626514E2,7.7410986E2,9.5129126E2,1.2486127E3,1.9601855E3,7.6296646E1,2.4642703E2,3.1812137E2,3.6020486E2,3.8481793E2,4.1787692E2,4.9155228E2,6.150561E2,7.0584344E2,7.816437E2,8.3463074E2,8.931593E2,9.464678E2,1.02352216E3,2.4106143E3,2.6642144E3,2.9580088E3,3.3231235E3,2.1004042E2,3.7825922E2],"categories":[],"categories_nodes":[],"categories_segments":[],"categories_sizes":[],"default_left":[1,1,1,1,1,1,1,1,1,1,1,1,1,1,1,1,1,1,1,1,1,1,1,1,1,1,1,1,0,1,1,1,1,1,1,1,1,1,1,1,1,1,1,1,1,1,0,1,1,1,1,0,0,0,0,0,0,1,1,1,0,0,0,0,0,0,0,0,0,0,0,0,0,0,0,0,0,0,0,0,0,0,0,0,0,0,0,0,0,0,0,0,0,0,0,0,0,0,0,0,0,0,0,0,0],"id":5,"left_children":[1,3,5,7,9,11,13,15,17,19,21,23,25,27,29,31,33,35,37,39,41,43,45,47,49,51,53,55,-1,57,59,61,63,65,67,69,71,73,75,77,79,81,83,85,87,89,-1,91,93,95,97,-1,-1,-1,-1,-1,-1,99,101,103,-1,-1,-1,-1,-1,-1,-1,-1,-1,-1,-1,-1,-1,-1,-1,-1,-1,-1,-1,-1,-1,-1,-1,-1,-1,-1,-1,-1,-1,-1,-1,-1,-1,-1,-1,-1,-1,-1,-1,-1,-1,-1,-1,-1,-1],"loss_changes":[1.127535E10,6.158844E8,4.5526405E9,8.445101E7,1.0198336E8,5.883361E8,4.9636147E8,1.3024672E7,1.5452992E7,4.6460544E7,7.85792E6,8.154522E7,7.737139E7,5.854208E7,3.058524E8,9.930352E6,4.742412E6,1.1286928E7,3.187648E6,1.2749184E7,1.0094528E7,2.242528E6,1.110816E6,1.455424E7,1.3262336E7,4.89344E6,1.6929792E7,9.337856E6,0E0,9.040998E7,1.62048E5,2.417464E6,1.0477504E7,2.659158E6,1.3130054E6,3.192766E6,4.725E6,7.63216E5,4.4196E5,2.495936E6,6.10752E5,2.892096E6,2.507E5,4.28169E5,3.86448E5,1.95728E5,0E0,1.91104E6,2.370048E6,7.15264E5,1.528704E6,0E0,0E0,0E0,0E0,0E0,0E0,1.1244032E7,3.8656E6,1.69925E4,0E0,0E0,0E0,0E0,0E0,0E0,0E0,0E0,0E0,0E0,0E0,0E0,0E0,0E0,0E0,0E0,0E0,0E0,0E0,0E0,0E0,0E0,0E0,0E0,0E0,0E0,0E0,0E0,0E0,0E0,0E0,0E0,0E0,0E0,0E0,0E0,0E0,0E0,0E0,0E0,0E0,0E0,0E0,0E0,0E0],"parents":[2147483647,0,0,1,1,2,2,3,3,4,4,5,5,6,6,7,7,8,8,9,9,10,10,11,11,12,12,13,13,14,14,15,15,16,16,17,17,18,18,19,19,20,20,21,21,22,22,23,23,24,24,25,25,26,26,27,27,29,29,30,30,31,31,32,32,33,33,34,34,35,35,36,36,37,37,38,38,39,39,40,40,41,41,42,42,43,43,44,44,45,45,47,47,48,48,49,49,50,50,57,57,58,58,59,59],"right_children":[2,4,6,8,10,12,14,16,18,20,22,24,26,28,30,32,34,36,38,40,42,44,46,48,50,52,54,56,-1,58,60,62,64,66,68,70,72,74,76,78,80,82,84,86,88,90,-1,92,94,96,98,-1,-1,-1,-1,-1,-1,100,102,104,-1,-1,-1,-1,-1,-1,-1,-1,-1,-1,-1,-1,-1,-1,-1,-1,-1,-1,-1,-1,-1,-1,-1,-1,-1,-1,-1,-1,-1,-1,-1,-1,-1,-1,-1,-1,-1,-1,-1,-1,-1,-1,-1,-1,-1],"split_conditions":[9.95E-1,6.05E-1,2.17325E4,4.9049997E0,2.88635E4,1.60945E4,2.5169E4,3.5E0,4.51375E4,7.347E3,5.04155E4,1.0573E4,1.8815E4,2.39825E4,3.48345E4,3.53965E4,4.14705E4,1.53635E4,5.01495E4,3.7935E3,1.59515E4,4.58965E4,5.30245E4,6.0165E3,1.33335E4,1.72115E4,2.05405E4,2.26575E4,6.520964E2,2.679E4,5.24535E4,2.79565E4,4.315E0,4.605E0,4.775E0,1.4705E3,3.86935E4,4.77905E4,5.30275E4,2.082E3,5.245E3,1.1715E4,1.92575E4,3.9308E4,4.88315E4,5.1403E4,1.3913565E2,3.3065E3,8.4315E3,1.19005E4,1.44345E4,3.327766E2,3.6832047E2,4.1586066E2,4.764531E2,5.1743823E2,5.726217E2,2.59475E4,2.75705E4,4.89535E4,1.5564084E2,2.5882172E1,3.9856613E1,2.054231E1,6.179105E1,1.981106E1,4.099974E1,-1.095503E1,8.249475E1,9.839994E1,2.13445E2,3.0222761E1,6.92303E1,9.150991E1,1.0376956E2,1.2135027E2,1.5650598E2,1.4470491E2,1.6645688E2,1.8351733E2,1.9987955E2,2.3223297E2,2.853874E2,3.745838E2,5.8805566E2,2.2888994E1,7.3928116E1,9.543642E1,1.0806146E2,1.1544538E2,1.2536308E2,1.4746568E2,1.8451683E2,2.1175304E2,2.3449312E2,2.5038924E2,2.679478E2,2.8394034E2,3.0705667E2,7.231843E2,7.9926434E2,8.8740265E2,9.969371E2,6.3012127E1,1.1347777E2],"split_indices":[1,1,0,7,0,0,0,3,0,0,0,0,0,0,0,0,0,0,0,0,0,0,0,0,0,0,0,0,0,0,0,0,7,7,7,0,0,0,0,0,0,0,0,0,0,0,0,0,0,0,0,0,0,0,0,0,0,0,0,0,0,0,0,0,0,0,0,0,0,0,0,0,0,0,0,0,0,0,0,0,0,0,0,0,0,0,0,0,0,0,0,0,0,0,0,0,0,0,0,0,0,0,0,0,0],"split_type":[0,0,0,0,0,0,0,0,0,0,0,0,0,0,0,0,0,0,0,0,0,0,0,0,0,0,0,0,0,0,0,0,0,0,0,0,0,0,0,0,0,0,0,0,0,0,0,0,0,0,0,0,0,0,0,0,0,0,0,0,0,0,0,0,0,0,0,0,0,0,0,0,0,0,0,0,0,0,0,0,0,0,0,0,0,0,0,0,0,0,0,0,0,0,0,0,0,0,0,0,0,0,0,0,0],"sum_hessian":[4.0455E4,2.6156E4,1.4299E4,1.8458E4,7.698E3,1.0126E4,4.173E3,1.2916E4,5.542E3,4.304E3,3.394E3,6.342E3,3.784E3,2.352E3,1.821E3,1.0008E4,2.908E3,2.923E3,2.619E3,3.499E3,8.05E2,1.404E3,1.99E3,2.839E3,3.503E3,1.843E3,1.941E3,1.534E3,8.18E2,1.761E3,6E1,5.793E3,4.215E3,2.485E3,4.23E2,9.7E1,2.826E3,2.262E3,3.57E2,2.13E3,1.369E3,7.74E2,3.1E1,2.46E2,1.158E3,1.45E3,5.4E2,7.85E2,2.054E3,1.724E3,1.779E3,7.63E2,1.08E3,1.157E3,7.84E2,6.5E2,8.84E2,1.099E3,6.62E2,4E1,2E1,1.518E3,4.275E3,6.58E2,3.557E3,1.708E3,7.77E2,4.1E2,1.3E1,3.9E1,5.8E1,3.17E2,2.509E3,1.46E3,8.02E2,3.05E2,5.2E1,1.195E3,9.35E2,6.81E2,6.88E2,6.38E2,1.36E2,2.7E1,4E0,1.7E1,2.29E2,4.98E2,6.6E2,5.07E2,9.43E2,1.96E2,5.89E2,9.33E2,1.121E3,7.85E2,9.39E2,6.94E2,1.085E3,5.41E2,5.58E2,5.44E2,1.18E2,5E0,3.5E1],"tree_param":{"num_deleted":"0","num_feature":"10","num_nodes":"105","size_leaf_vector":"0"}},{"base_weights":[4.6530304E2,1.9188153E2,9.654024E2,1.2241149E2,3.5841684E2,7.1227386E2,1.5834885E3,9.106915E1,1.9423613E2,4.301367E2,2.6736752E2,5.8041864E2,9.304198E2,1.3668578E3,1.8551824E3,9.9390976E1,1.3122024E1,1.4598772E2,2.2728142E2,4.0012332E2,6.233598E2,2.31805E2,3.0038953E2,4.8232764E2,6.451794E2,8.2308545E2,1.027941E3,1.2406572E3,1.4722764E3,1.9073948E3,3.0119397E2,8.517823E1,1.3473286E2,-1.6211433E1,6.968251E1,3.967357E2,1.3467455E2,2.1571848E2,2.8340457E2,3.608574E2,4.5418762E2,6.0053894E2,1.0338876E3,1.3269743E2,2.4054102E2,2.8956396E2,3.2643588E2,3.951513E2,5.1008273E2,5.943751E2,6.8943097E2,7.7526196E2,8.56288E2,9.672715E2,1.1105974E3,1.1786772E3,1.2755542E3,1.4076361E3,1.55845E3,1.7708035E3,2.1121921E3,2.6218387E2,3.8673874E2,1.5836061E2,7.685619E1,1.0775746E2,1.8402733E2,2.5731495E1,-6.510196E1,8.202605E1,-2.9766577E2,3.3271753E2,7.287883E2,8.885906E1,1.5216156E2,3.5217593E2,2.1393933E2,2.704063E2,3.4813834E2,3.057623E2,3.7765057E2,4.2791626E2,4.6964627E2,5.803398E2,7.039751E2,9.113158E2,1.5721322E3,2.6750189E1,1.4188025E2,2.2070341E2,2.561943E2,2.7899747E2,2.9815173E2,3.137877E2,3.5105295E2,2.499471E2,4.0594046E2,4.876346E2,5.372752E2,5.79883E2,6.15906E2,6.5770355E2,7.15314E2,9.4667584E2,1.00953687E3,1.6733682E3,1.8527621E3,2.0229258E3,2.2643818E3,1.0135929E2,2.673069E2],"categories":[],"categories_nodes":[],"categories_segments":[],"categories_sizes":[],"default_left":[1,1,1,1,1,1,1,1,1,1,1,1,1,1,1,1,1,1,1,1,1,1,1,1,1,1,1,1,1,1,1,1,1,1,1,1,1,1,1,1,1,1,1,1,1,1,1,1,1,1,1,0,0,1,0,0,0,0,0,1,1,1,0,0,0,0,0,0,0,0,0,0,0,0,0,0,0,0,0,0,0,0,0,0,0,0,0,0,0,0,0,0,0,0,0,0,0,0,0,0,0,0,0,0,0,0,0,0,0,0,0],"id":6,"left_children":[1,3,5,7,9,11,13,15,17,19,21,23,25,27,29,31,33,35,37,39,41,43,45,47,49,51,53,55,57,59,61,63,65,67,69,71,73,75,77,79,81,83,85,87,89,91,93,95,97,99,101,-1,-1,103,-1,-1,-1,-1,-1,105,107,109,-1,-1,-1,-1,-1,-1,-1,-1,-1,-1,-1,-1,-1,-1,-1,-1,-1,-1,-1,-1,-1,-1,-1,-1,-1,-1,-1,-1,-1,-1,-1,-1,-1,-1,-1,-1,-1,-1,-1,-1,-1,-1,-1,-1,-1,-1,-1,-1,-1],"loss_changes":[5.531684E9,3.0257203E8,2.2361815E9,4.153632E7,5.015987E7,2.9132493E8,2.4195789E8,8.33596E6,8.906528E6,2.4716416E7,3.91728E6,3.988083E7,3.9149824E7,2.8972032E7,1.4871808E8,5.821792E6,2.0600908E6,6.420048E6,2.09728E6,7.75232E6,4.784816E6,1.387144E6,4.0088E5,5.895808E6,8.151296E6,2.232448E6,8.945152E6,7.89376E5,4.80256E6,4.6052864E7,1.021675E5,5.033612E6,4.406872E6,1.6790758E6,1.9469921E6,1.840744E6,1.737048E6,5.95216E5,3.81272E5,1.887616E6,4.34624E5,7.3848E5,4.80528E5,1.27545E5,4.10792E5,3.024E4,4.8016E4,8.5888E5,9.02688E5,1.98272E5,1.195776E6,0E0,0E0,5.4144E4,0E0,0E0,0E0,0E0,0E0,5.476608E6,5.024256E6,9.9815E3,0E0,0E0,0E0,0E0,0E0,0E0,0E0,0E0,0E0,0E0,0E0,0E0,0E0,0E0,0E0,0E0,0E0,0E0,0E0,0E0,0E0,0E0,0E0,0E0,0E0,0E0,0E0,0E0,0E0,0E0,0E0,0E0,0E0,0E0,0E0,0E0,0E0,0E0,0E0,0E0,0E0,0E0,0E0,0E0,0E0,0E0,0E0,0E0,0E0],"parents":[2147483647,0,0,1,1,2,2,3,3,4,4,5,5,6,6,7,7,8,8,9,9,10,10,11,11,12,12,13,13,14,14,15,15,16,16,17,17,18,18,19,19,20,20,21,21,22,22,23,23,24,24,25,25,26,26,27,27,28,28,29,29,30,30,31,31,32,32,33,33,34,34,35,35,36,36,37,37,38,38,39,39,40,40,41,41,42,42,43,43,44,44,45,45,46,46,47,47,48,48,49,49,50,50,53,53,59,59,60,60,61,61],"right_children":[2,4,6,8,10,12,14,16,18,20,22,24,26,28,30,32,34,36,38,40,42,44,46,48,50,52,54,56,58,60,62,64,66,68,70,72,74,76,78,80,82,84,86,88,90,92,94,96,98,100,102,-1,-1,104,-1,-1,-1,-1,-1,106,108,110,-1,-1,-1,-1,-1,-1,-1,-1,-1,-1,-1,-1,-1,-1,-1,-1,-1,-1,-1,-1,-1,-1,-1,-1,-1,-1,-1,-1,-1,-1,-1,-1,-1,-1,-1,-1,-1,-1,-1,-1,-1,-1,-1,-1,-1,-1,-1,-1,-1],"split_conditions":[9.95E-1,6.05E-1,2.17655E4,4.895E0,2.88635E4,1.60715E4,2.5142E4,4.5E0,4.39505E4,8.3475E3,5.0901E4,9.9585E3,1.87635E4,2.32895E4,3.48345E4,5.5E0,3.75E-1,1.53635E4,4.92515E4,3.8505E3,1.61775E4,4.42235E4,5.3066E4,5.454E3,1.29275E4,1.71805E4,2.04925E4,2.2314E4,2.43975E4,2.66635E4,5.31145E4,1.5E0,3.8063E4,3.12325E4,4.31325E4,5.69E3,4.02325E4,4.995E0,5.25045E4,9.32E2,5.1055E3,1.27745E4,1.99575E4,3.7994E4,4.90125E4,5.19065E4,5.36735E4,1.1305E3,8.304E3,1.18595E4,1.4353E4,2.325786E2,2.568864E2,1.99225E4,3.3317923E2,3.5360318E2,3.8266626E2,4.2229086E2,4.67535E2,2.58685E4,2.73915E4,4.6883E4,1.1602163E2,4.7508186E1,2.3056858E1,3.232724E1,5.5208202E1,7.7194486E0,-1.9530588E1,2.4607815E1,-8.9299736E1,9.981526E1,2.186365E2,2.665772E1,4.5648468E1,1.0565279E2,6.41818E1,8.1121895E1,1.04441505E2,9.172869E1,1.1329517E2,1.2837488E2,1.4089389E2,1.7410194E2,2.1119254E2,2.7339474E2,4.7163968E2,8.025057E0,4.2564075E1,6.621103E1,7.685829E1,8.369924E1,8.9445526E1,9.413631E1,1.0531589E2,7.498413E1,1.2178214E2,1.4629039E2,1.6118257E2,1.739649E2,1.847718E2,1.9731108E2,2.1459422E2,2.8400278E2,3.0286108E2,5.0201047E2,5.558287E2,6.0687775E2,6.793146E2,3.040779E1,8.019207E1],"split_indices":[1,1,0,7,0,0,0,3,0,0,0,0,0,0,0,4,1,0,0,0,0,0,0,0,0,0,0,0,0,0,0,4,0,0,0,0,0,8,0,0,0,0,0,0,0,0,0,0,0,0,0,0,0,0,0,0,0,0,0,0,0,0,0,0,0,0,0,0,0,0,0,0,0,0,0,0,0,0,0,0,0,0,0,0,0,0,0,0,0,0,0,0,0,0,0,0,0,0,0,0,0,0,0,0,0,0,0,0,0,0,0],"split_type":[0,0,0,0,0,0,0,0,0,0,0,0,0,0,0,0,0,0,0,0,0,0,0,0,0,0,0,0,0,0,0,0,0,0,0,0,0,0,0,0,0,0,0,0,0,0,0,0,0,0,0,0,0,0,0,0,0,0,0,0,0,0,0,0,0,0,0,0,0,0,0,0,0,0,0,0,0,0,0,0,0,0,0,0,0,0,0,0,0,0,0,0,0,0,0,0,0,0,0,0,0,0,0,0,0,0,0,0,0,0,0],"sum_hessian":[4.0455E4,2.6156E4,1.4299E4,1.8458E4,7.698E3,1.0146E4,4.153E3,1.2852E4,5.606E3,4.304E3,3.394E3,6.326E3,3.82E3,2.314E3,1.839E3,1.1612E4,1.24E3,2.281E3,3.325E3,3.728E3,5.76E2,1.638E3,1.756E3,2.519E3,3.807E3,1.823E3,1.997E3,1.059E3,1.255E3,1.779E3,6E1,8.284E3,3.328E3,8.17E2,4.23E2,9.7E1,2.184E3,2.761E3,5.64E2,2.164E3,1.564E3,5.48E2,2.8E1,1.34E2,1.504E3,1.249E3,5.07E2,6.12E2,1.907E3,1.779E3,2.028E3,7.57E2,1.066E3,1.159E3,8.38E2,3.94E2,6.65E2,7.27E2,5.28E2,1.073E3,7.06E2,4.4E1,1.6E1,8.44E2,7.44E3,2.153E3,1.175E3,4.4E2,3.77E2,4.1E2,1.3E1,8.3E1,1.4E1,6.05E2,1.579E3,3.3E1,2.728E3,4.74E2,9E1,5.1E2,1.654E3,5.9E2,9.74E2,4.64E2,8.4E1,2.5E1,3E0,1.1E1,1.23E2,6.7E2,8.34E2,5.75E2,6.74E2,3.44E2,1.63E2,4.4E1,5.68E2,1.055E3,8.52E2,1.08E3,6.99E2,9.23E2,1.105E3,7.95E2,3.64E2,5E2,5.73E2,4.54E2,2.52E2,2E0,4.2E1],"tree_param":{"num_deleted":"0","num_feature":"10","num_nodes":"111","size_leaf_vector":"0"}},{"base_weights":[3.259563E2,1.344317E2,6.762628E2,8.573289E1,2.5117377E2,4.7693408E2,1.0623745E3,5.8628525E1,1.2866364E2,3.0146844E2,1.8732405E2,3.9666046E2,6.04808E2,8.9493506E2,1.2715309E3,7.8488174E1,3.4221558E1,9.068119E1,1.5804779E2,2.8064682E2,4.422317E2,1.4841844E2,2.0240213E2,3.29032E2,4.3601746E2,5.5161633E2,6.7460944E2,8.2310706E2,9.87886E2,1.3015995E3,2.1455083E2,-1.7791307E1,8.644355E1,4.4471146E1,-3.7838684E1,2.5453293E2,8.494293E1,2.642755E2,1.5271736E2,2.3572282E2,3.0631573E2,4.1815552E2,6.710175E2,8.071402E1,1.5609329E2,1.9151239E2,2.228564E2,2.5109442E2,3.4462732E2,4.1022882E2,4.7104883E2,5.2964197E2,5.8371576E2,6.5712964E2,7.110635E2,7.919638E2,8.638637E2,9.506096E2,1.0456188E3,1.179236E3,1.4459329E3,1.4679218E2,2.417085E2,-5.950361E1,5.2894816E0,5.190527E1,1.031787E2,2.8785843E1,7.740771E1,1.0513365E0,-6.810157E1,-2.289764E2,2.9677057E2,5.4082745E1,1.0287987E2,2.4149345E2,3.4964825E2,1.4162296E2,1.8870009E2,1.8676616E2,2.4539326E2,2.890497E2,3.2894278E2,3.9078732E2,4.4323996E2,5.99121E2,1.110388E3,5.8816733E0,8.722806E1,1.3670201E2,1.6597731E2,1.8156203E2,1.9915012E2,2.174136E2,2.4979039E2,1.6492839E2,2.601594E2,3.2025034E2,3.6106824E2,3.9782513E2,4.2796588E2,4.593694E2,4.8826434E2,1.1267474E3,1.2300239E3,1.3913743E3,1.5844987E3,7.388345E1,1.5531233E2],"categories":[],"categories_nodes":[],"categories_segments":[],"categories_sizes":[],"default_left":[1,1,1,1,1,1,1,1,1,1,1,1,1,1,1,1,1,1,1,1,1,1,1,1,1,1,1,1,1,1,1,1,1,1,1,1,1,1,1,1,1,1,1,1,1,1,1,1,1,1,1,0,0,0,0,0,0,0,0,1,1,1,0,0,0,0,0,0,0,0,0,0,0,0,0,0,0,0,0,0,0,0,0,0,0,0,0,0,0,0,0,0,0,0,0,0,0,0,0,0,0,0,0,0,0,0,0,0,0],"id":7,"left_children":[1,3,5,7,9,11,13,15,17,19,21,23,25,27,29,31,33,35,37,39,41,43,45,47,49,51,53,55,57,59,61,63,65,67,69,71,73,75,77,79,81,83,85,87,89,91,93,95,97,99,101,-1,-1,-1,-1,-1,-1,-1,-1,103,105,107,-1,-1,-1,-1,-1,-1,-1,-1,-1,-1,-1,-1,-1,-1,-1,-1,-1,-1,-1,-1,-1,-1,-1,-1,-1,-1,-1,-1,-1,-1,-1,-1,-1,-1,-1,-1,-1,-1,-1,-1,-1,-1,-1,-1,-1,-1,-1],"loss_changes":[2.7141955E9,1.4868627E8,1.1000663E9,2.1471552E7,2.4667328E7,9.658918E7,1.6934451E8,5.482816E6,7.957832E6,1.2493504E7,1.961536E6,1.5288768E7,1.3127808E7,1.7260032E7,6.843341E7,4.780232E6,3.7529705E6,2.909996E6,2.239328E6,4.255552E6,2.765488E6,4.8208E5,5.01704E5,2.510912E6,3.115072E6,1.150272E6,5.31968E5,1.261696E6,1.53472E6,3.5418624E7,7.676925E4,4.5954784E5,3.325676E6,2.29518E6,7.4506456E5,2.212294E6,1.662796E6,2.87052E5,1.504624E6,6.02304E5,8.36688E5,1.72104E5,9.45792E5,4.7745562E4,1.40992E5,8.5592E4,6.9276E4,2.38284E5,5.9696E5,2.95488E5,8.6528E4,0E0,0E0,0E0,0E0,0E0,0E0,0E0,0E0,1.661056E6,5.052672E6,9.48875E2,0E0,0E0,0E0,0E0,0E0,0E0,0E0,0E0,0E0,0E0,0E0,0E0,0E0,0E0,0E0,0E0,0E0,0E0,0E0,0E0,0E0,0E0,0E0,0E0,0E0,0E0,0E0,0E0,0E0,0E0,0E0,0E0,0E0,0E0,0E0,0E0,0E0,0E0,0E0,0E0,0E0,0E0,0E0,0E0,0E0,0E0,0E0],"parents":[2147483647,0,0,1,1,2,2,3,3,4,4,5,5,6,6,7,7,8,8,9,9,10,10,11,11,12,12,13,13,14,14,15,15,16,16,17,17,18,18,19,19,20,20,21,21,22,22,23,23,24,24,25,25,26,26,27,27,28,28,29,29,30,30,31,31,32,32,33,33,34,34,35,35,36,36,37,37,38,38,39,39,40,40,41,41,42,42,43,43,44,44,45,45,46,46,47,47,48,48,49,49,50,50,59,59,60,60,61,61],"right_children":[2,4,6,8,10,12,14,16,18,20,22,24,26,28,30,32,34,36,38,40,42,44,46,48,50,52,54,56,58,60,62,64,66,68,70,72,74,76,78,80,82,84,86,88,90,92,94,96,98,100,102,-1,-1,-1,-1,-1,-1,-1,-1,104,106,108,-1,-1,-1,-1,-1,-1,-1,-1,-1,-1,-1,-1,-1,-1,-1,-1,-1,-1,-1,-1,-1,-1,-1,-1,-1,-1,-1,-1,-1,-1,-1,-1,-1,-1,-1,-1,-1,-1,-1,-1,-1,-1,-1,-1,-1,-1,-1],"split_conditions":[9.95E-1,6.05E-1,2.06665E4,4.775E0,2.88635E4,1.52395E4,2.46615E4,2.5E0,4.27925E4,8.5005E3,4.94335E4,9.2485E3,1.83145E4,2.2936E4,3.48345E4,4.075E0,4.12365E4,1.1041E4,4.75E-1,2.3575E3,1.4511E4,4.3091E4,5.24875E4,4.4205E3,1.28655E4,1.71255E4,1.9913E4,2.19845E4,2.4027E4,2.63105E4,5.08385E4,5.5E0,3.5E0,5.5E0,4.3450003E0,4.96E0,3.8227E4,4.59355E4,4.8295E4,4.615E2,5.024E3,1.0305E4,1.8701E4,3.7249E4,4.7152E4,5.09395E4,5.37315E4,9.225E2,6.93E3,1.15205E4,1.43105E4,1.588926E2,1.7511473E2,1.971389E2,2.1331905E2,2.3758916E2,2.5915912E2,2.851829E2,3.1368564E2,2.54975E4,2.73455E4,5.87E1,7.251255E1,-1.7851084E1,1.5868446E0,1.5571582E1,3.0953611E1,8.635754E0,2.3222313E1,3.1540096E-1,-2.0430471E1,-6.8692924E1,8.903117E1,1.6224825E1,3.0863962E1,7.244804E1,1.0489448E2,4.248689E1,5.6610027E1,5.602985E1,7.361798E1,8.671492E1,9.868284E1,1.172362E2,1.32972E2,1.797363E2,3.331164E2,1.764502E0,2.6168419E1,4.1010605E1,4.9793194E1,5.446861E1,5.9745037E1,6.522408E1,7.493712E1,4.947852E1,7.804782E1,9.60751E1,1.0832047E2,1.1934754E2,1.2838977E2,1.3781082E2,1.4647931E2,3.3802423E2,3.690072E2,4.174123E2,4.753496E2,2.2165037E1,4.65937E1],"split_indices":[1,1,0,7,0,0,0,3,0,0,0,0,0,0,0,7,0,0,1,0,0,0,0,0,0,0,0,0,0,0,0,4,4,4,8,7,0,0,0,0,0,0,0,0,0,0,0,0,0,0,0,0,0,0,0,0,0,0,0,0,0,5,0,0,0,0,0,0,0,0,0,0,0,0,0,0,0,0,0,0,0,0,0,0,0,0,0,0,0,0,0,0,0,0,0,0,0,0,0,0,0,0,0,0,0,0,0,0,0],"split_type":[0,0,0,0,0,0,0,0,0,0,0,0,0,0,0,0,0,0,0,0,0,0,0,0,0,0,0,0,0,0,0,0,0,0,0,0,0,0,0,0,0,0,0,0,0,0,0,0,0,0,0,0,0,0,0,0,0,0,0,0,0,0,0,0,0,0,0,0,0,0,0,0,0,0,0,0,0,0,0,0,0,0,0,0,0,0,0,0,0,0,0,0,0,0,0,0,0,0,0,0,0,0,0,0,0,0,0,0,0],"sum_hessian":[4.0455E4,2.6156E4,1.4299E4,1.8458E4,7.698E3,9.432E3,4.867E3,1.1316E4,7.142E3,4.304E3,3.394E3,5.797E3,3.635E3,2.706E3,2.161E3,6.238E3,5.078E3,3.117E3,4.025E3,3.752E3,5.52E2,9.51E2,2.443E3,2.136E3,3.661E3,2.068E3,1.567E3,1.532E3,1.174E3,2.101E3,6E1,4.76E2,5.762E3,4.446E3,6.32E2,1.04E2,3.013E3,1.9E2,3.835E3,1.368E3,2.384E3,5.02E2,5E1,9.8E1,8.53E2,1.601E3,8.42E2,3.59E2,1.777E3,2.116E3,1.545E3,1.238E3,8.3E2,1.072E3,4.95E2,8.8E2,6.52E2,7.24E2,4.5E2,1.142E3,9.59E2,1.9E1,4.1E1,1.69E2,3.07E2,1.882E3,3.88E3,3.013E3,1.433E3,2.77E2,3.55E2,8E0,9.6E1,1.109E3,1.904E3,1.53E2,3.7E1,2.935E3,9E2,2.29E2,1.139E3,1.36E3,1.024E3,2.48E2,2.54E2,4.5E1,5E0,8E0,9E1,2.93E2,5.6E2,7.06E2,8.95E2,7.08E2,1.34E2,3.6E1,3.23E2,7.24E2,1.053E3,1.259E3,8.57E2,9.37E2,6.08E2,5.73E2,5.69E2,6.96E2,2.63E2,3E0,1.6E1],"tree_param":{"num_deleted":"0","num_feature":"10","num_nodes":"109","size_leaf_vector":"0"}},{"base_weights":[2.283247E2,9.4172424E1,4.7369485E2,6.0033913E1,1.7601013E2,3.4023056E2,7.572321E2,4.000823E1,8.902217E1,2.1127837E2,1.3123671E2,2.8373117E2,4.4342084E2,6.5477747E2,9.150207E2,-1.37463045E1,4.606208E1,6.3146217E1,1.1157407E2,1.9576315E2,3.0620627E2,1.1025892E2,1.4515067E2,2.3936261E2,3.182267E2,3.9702295E2,4.8423682E2,5.926802E2,7.237119E2,9.412419E2,1.5250156E2,2.3246176E0,-5.539215E1,7.053313E1,3.2139423E1,1.7836667E2,5.9579853E1,2.0698604E2,1.0762521E2,1.7016508E2,2.182441E2,2.935537E2,5.555519E2,8.487236E1,1.1957475E2,1.3770009E2,1.5699055E2,1.9965038E2,2.5583559E2,2.9649637E2,3.3906653E2,3.8681635E2,4.2399152E2,4.6220483E2,5.169516E2,5.658743E2,6.2346466E2,6.918718E2,7.664314E2,8.7539386E2,1.0557659E3,1.2793796E2,2.1359053E2,3.3867195E1,-2.1354658E1,-3.85603E1,-8.75665E1,4.4709873E1,9.7096886E1,1.9741024E1,6.3857662E1,-4.1545947E2,1.9990529E2,3.8281868E1,7.452143E1,2.1492462E2,-2.7746118E2,9.7604904E1,1.2959912E2,1.3546608E2,1.7746608E2,2.0901376E2,2.358142E2,2.7952844E2,3.404583E2,4.6724768E2,9.685653E2,4.825293E1,9.3616776E1,2.8484595E2,1.19120094E2,1.307249E2,1.4127495E2,1.5330469E2,1.8025186E2,1.445062E2,2.0817604E2,2.4391768E2,2.668992E2,2.8827344E2,3.0512442E2,3.2636905E2,3.4892773E2,3.939158E2,3.4533817E2,4.9796716E2,5.3871796E2,8.3039124E2,9.1702704E2,1.027754E3,1.2795671E3,7.411088E1,1.3415926E2],"categories":[],"categories_nodes":[],"categories_segments":[],"categories_sizes":[],"default_left":[1,1,1,1,1,1,1,1,1,1,1,1,1,1,1,1,1,1,1,1,1,1,1,1,1,1,1,1,1,1,1,1,1,1,1,1,1,1,1,1,1,1,1,1,1,1,1,1,1,1,1,1,0,0,1,0,0,0,0,1,1,1,0,0,0,0,0,0,0,0,0,0,0,0,0,0,0,0,0,0,0,0,0,0,0,0,0,0,0,0,0,0,0,0,0,0,0,0,0,0,0,0,0,0,0,0,0,0,0,0,0,0,0],"id":8,"left_children":[1,3,5,7,9,11,13,15,17,19,21,23,25,27,29,31,33,35,37,39,41,43,45,47,49,51,53,55,57,59,61,63,65,67,69,71,73,75,77,79,81,83,85,87,89,91,93,95,97,99,101,103,-1,-1,105,-1,-1,-1,-1,107,109,111,-1,-1,-1,-1,-1,-1,-1,-1,-1,-1,-1,-1,-1,-1,-1,-1,-1,-1,-1,-1,-1,-1,-1,-1,-1,-1,-1,-1,-1,-1,-1,-1,-1,-1,-1,-1,-1,-1,-1,-1,-1,-1,-1,-1,-1,-1,-1,-1,-1,-1,-1],"loss_changes":[1.331644E9,7.306731E7,5.408842E8,1.0712072E7,1.2129632E7,5.657267E7,7.337754E7,3.553916E6,4.39352E6,6.28056E6,9.74944E5,9.546208E6,6.320512E6,1.1462656E7,3.582579E7,7.403604E5,3.341382E6,1.433338E6,1.49534E6,2.093808E6,1.739304E6,3.11014E5,1.5816E5,1.750528E6,1.49984E6,2.80528E5,1.07648E6,8.5776E5,1.254272E6,1.2189952E7,6.4208125E4,5.975006E5,1.6342206E5,2.436314E6,2.4593385E6,1.4260228E6,1.082296E6,6.711185E5,8.39468E5,4.15752E5,2.6988E5,2.83752E5,5.68622E5,1.13322E5,4.0536E4,1.2926E4,3.9242E4,3.51672E5,1.91096E5,3.5344E4,1.11136E5,2.12336E5,0E0,0E0,3.1712E4,0E0,0E0,0E0,0E0,1.318208E6,2.634368E6,5.4615E3,0E0,0E0,0E0,0E0,0E0,0E0,0E0,0E0,0E0,0E0,0E0,0E0,0E0,0E0,0E0,0E0,0E0,0E0,0E0,0E0,0E0,0E0,0E0,0E0,0E0,0E0,0E0,0E0,0E0,0E0,0E0,0E0,0E0,0E0,0E0,0E0,0E0,0E0,0E0,0E0,0E0,0E0,0E0,0E0,0E0,0E0,0E0,0E0,0E0,0E0,0E0],"parents":[2147483647,0,0,1,1,2,2,3,3,4,4,5,5,6,6,7,7,8,8,9,9,10,10,11,11,12,12,13,13,14,14,15,15,16,16,17,17,18,18,19,19,20,20,21,21,22,22,23,23,24,24,25,25,26,26,27,27,28,28,29,29,30,30,31,31,32,32,33,33,34,34,35,35,36,36,37,37,38,38,39,39,40,40,41,41,42,42,43,43,44,44,45,45,46,46,47,47,48,48,49,49,50,50,51,51,54,54,59,59,60,60,61,61],"right_children":[2,4,6,8,10,12,14,16,18,20,22,24,26,28,30,32,34,36,38,40,42,44,46,48,50,52,54,56,58,60,62,64,66,68,70,72,74,76,78,80,82,84,86,88,90,92,94,96,98,100,102,104,-1,-1,106,-1,-1,-1,-1,108,110,112,-1,-1,-1,-1,-1,-1,-1,-1,-1,-1,-1,-1,-1,-1,-1,-1,-1,-1,-1,-1,-1,-1,-1,-1,-1,-1,-1,-1,-1,-1,-1,-1,-1,-1,-1,-1,-1,-1,-1,-1,-1,-1,-1,-1,-1,-1,-1,-1,-1,-1,-1],"split_conditions":[9.95E-1,6.05E-1,2.11245E4,4.755E0,2.88635E4,1.59875E4,2.5201E4,2.5949998E0,4.28355E4,8.254E3,5.0327E4,1.0443E4,1.83915E4,2.32705E4,3.48345E4,2.5E0,1.5E0,1.1041E4,4.5499998E-1,3.022E3,1.63855E4,4.7084E4,5.25905E4,6.114E3,1.32295E4,1.77575E4,1.9996E4,2.22845E4,2.4419E4,2.683E4,5.3243E4,3.5E0,3.5E0,3.36565E4,5.5E0,5E-1,3.85025E4,4E0,4.7692E4,5.745E2,5.868E3,1.1891E4,1.99575E4,4.23375E4,2.645E0,5.12025E4,5.37775E4,2.263E3,8.499E3,1.1952E4,1.44825E4,1.7493E4,1.2719746E2,1.3866145E2,2.0615E4,1.697623E2,1.870394E2,2.0756155E2,2.2992943E2,2.5978E4,2.76365E4,4.92525E4,6.407716E1,1.0160159E1,-6.406398E0,-1.156809E1,-2.626995E1,1.3412963E1,2.9129066E1,5.9223075E0,1.9157299E1,-1.2463785E2,5.997159E1,1.1484561E1,2.235643E1,6.447739E1,-8.323836E1,2.9281473E1,3.8879738E1,4.0639824E1,5.3239826E1,6.2704132E1,7.074426E1,8.3858536E1,1.021375E2,1.4017432E2,2.905696E2,1.447588E1,2.8085033E1,8.545379E1,3.573603E1,3.9217472E1,4.2382484E1,4.599141E1,5.407556E1,4.335186E1,6.2452816E1,7.317531E1,8.006976E1,8.648203E1,9.153733E1,9.791072E1,1.0467832E2,1.1817474E2,1.03601456E2,1.4939015E2,1.6161539E2,2.4911739E2,2.7510812E2,3.0832623E2,3.8387015E2,2.2233265E1,4.024778E1],"split_indices":[1,1,0,7,0,0,0,9,0,0,0,0,0,0,0,3,3,0,1,0,0,0,0,0,0,0,0,0,0,0,0,2,2,0,4,4,0,3,0,0,0,0,0,0,7,0,0,0,0,0,0,0,0,0,0,0,0,0,0,0,0,0,0,0,0,0,0,0,0,0,0,0,0,0,0,0,0,0,0,0,0,0,0,0,0,0,0,0,0,0,0,0,0,0,0,0,0,0,0,0,0,0,0,0,0,0,0,0,0,0,0,0,0],"split_type":[0,0,0,0,0,0,0,0,0,0,0,0,0,0,0,0,0,0,0,0,0,0,0,0,0,0,0,0,0,0,0,0,0,0,0,0,0,0,0,0,0,0,0,0,0,0,0,0,0,0,0,0,0,0,0,0,0,0,0,0,0,0,0,0,0,0,0,0,0,0,0,0,0,0,0,0,0,0,0,0,0,0,0,0,0,0,0,0,0,0,0,0,0,0,0,0,0,0,0,0,0,0,0,0,0,0,0,0,0,0,0,0,0],"sum_hessian":[4.0455E4,2.6156E4,1.4299E4,1.8458E4,7.698E3,9.724E3,4.575E3,1.0918E4,7.54E3,4.304E3,3.394E3,6.286E3,3.438E3,2.777E3,1.798E3,1.105E3,9.813E3,3.513E3,4.027E3,3.702E3,6.02E2,1.357E3,2.037E3,2.753E3,3.533E3,1.614E3,1.824E3,1.466E3,1.311E3,1.738E3,6E1,7.98E2,3.07E2,3.557E3,6.256E3,1.04E2,3.409E3,1.58E2,3.869E3,1.735E3,1.967E3,5.75E2,2.7E1,3.67E2,9.9E2,1.258E3,7.79E2,8.11E2,1.942E3,1.737E3,1.796E3,1.182E3,4.32E2,1.099E3,7.25E2,7.94E2,6.72E2,7.61E2,5.5E2,1.109E3,6.29E2,4.5E1,1.5E1,3.42E2,4.56E2,2.03E2,1.04E2,1.805E3,1.752E3,4.499E3,1.757E3,3E0,1.01E2,1.407E3,2.002E3,1.56E2,2E0,2.661E3,1.208E3,3.05E2,1.43E3,1.298E3,6.69E2,4.48E2,1.27E2,2.4E1,3E0,7.2E1,2.95E2,1E0,9.89E2,4.39E2,8.19E2,6.79E2,1E2,1.11E2,7E2,9.46E2,9.96E2,9.07E2,8.3E2,8E2,9.96E2,1.002E3,1.8E2,4E2,3.25E2,5.43E2,5.66E2,5.64E2,6.5E1,6E0,3.9E1],"tree_param":{"num_deleted":"0","num_feature":"10","num_nodes":"113","size_leaf_vector":"0"}},{"base_weights":[1.5994635E2,6.5968155E1,3.318364E2,4.2026558E1,1.2336158E2,2.4395688E2,5.436785E2,2.800883E1,6.231797E1,1.4809094E2,9.196739E1,1.9952533E2,3.2005124E2,4.705202E2,6.41874E2,8.4037796E1,2.3373081E1,4.4443504E1,7.8436165E1,1.3768884E2,2.211344E2,7.048214E1,9.900345E1,1.6777974E2,2.2375758E2,2.849541E2,3.5404938E2,4.346478E2,5.215651E2,6.603303E2,1.0882579E2,-2.2662521E2,9.155832E1,-1.5176006E1,3.55707E1,-1.2902586E2,4.57004E1,1.5763666E2,7.562402E1,1.1394728E2,1.5056296E2,2.1463554E2,5.77108E2,4.3261845E1,7.539828E1,9.176613E1,1.0775188E2,1.1816989E2,1.7472466E2,2.0779396E2,2.3822687E2,2.668237E2,2.9740356E2,3.361897E2,3.8236243E2,4.2160968E2,4.6404977E2,5.000543E2,5.376497E2,6.202355E2,7.5803394E2,9.17303E1,1.5966565E2,-2.837579E2,4.2944788E2,4.77364E2,8.470939E1,1.9119488E1,-7.955867E1,-1.0514099E1,4.3289383E1,-5.2944415E2,-9.1831375E1,1.4052156E2,4.288538E1,1.6501395E2,-2.2196895E2,7.30414E1,1.3598004E2,7.725843E1,1.1789139E2,1.3682977E2,1.5815775E2,8.22218E2,2.119173E2,3.891815E2,8.232337E2,-5.6355065E-1,4.8094845E1,7.071977E1,8.198517E1,2.4211908E2,9.148659E1,1.0391579E2,1.203716E2,3.5971157E1,1.2155838E2,1.6056693E2,1.8454034E2,2.0391927E2,2.1752837E2,2.2856897E2,2.4497888E2,2.751296E2,2.4936095E2,3.3633292E2,2.9091647E2,3.8064804E2,3.2965286E2,3.947496E2,3.1050925E2,4.058214E2,4.3356677E2,4.912595E2,4.3826566E2,5.742571E2,6.446711E2,7.3616583E2,9.242056E2,6.816917E1,1.0138058E2],"categories":[],"categories_nodes":[],"categories_segments":[],"categories_sizes":[],"default_left":[1,1,1,1,1,1,1,1,1,1,1,1,1,1,1,1,1,1,1,1,1,1,1,1,1,1,1,1,1,1,1,1,1,1,1,1,1,1,1,1,1,1,1,1,1,1,1,1,1,1,1,1,1,1,1,1,1,0,0,1,1,1,0,0,0,0,0,0,0,0,0,0,0,0,0,0,0,0,0,0,0,0,0,0,0,0,0,0,0,0,0,0,0,0,0,0,0,0,0,0,0,0,0,0,0,0,0,0,0,0,0,0,0,0,0,0,0,0,0,0,0],"id":9,"left_children":[1,3,5,7,9,11,13,15,17,19,21,23,25,27,29,31,33,35,37,39,41,43,45,47,49,51,53,55,57,59,61,63,65,67,69,71,73,75,77,79,81,83,85,87,89,91,93,95,97,99,101,103,105,107,109,111,113,-1,-1,115,117,119,-1,-1,-1,-1,-1,-1,-1,-1,-1,-1,-1,-1,-1,-1,-1,-1,-1,-1,-1,-1,-1,-1,-1,-1,-1,-1,-1,-1,-1,-1,-1,-1,-1,-1,-1,-1,-1,-1,-1,-1,-1,-1,-1,-1,-1,-1,-1,-1,-1,-1,-1,-1,-1,-1,-1,-1,-1,-1,-1],"loss_changes":[6.53501E8,3.5936896E7,2.6608448E8,5.248722E6,5.96356E6,3.411456E7,2.9812608E7,2.834095E6,2.16911E6,3.24052E6,5.0625E5,4.874224E6,4.343904E6,4.178912E6,1.7508864E7,1.969263E6,4.7430495E6,7.860195E5,8.70952E5,1.135456E6,1.11381E6,1.0927975E5,1.51884E5,9.33024E5,7.86192E5,3.35504E5,8.2616E5,3.48336E5,7.3024E4,6.295232E6,3.8370938E4,8.715237E5,2.113082E6,5.3560065E6,2.725935E6,3.386077E5,9.42354E5,4.146905E5,5.87076E5,1.83348E5,2.3306E5,6.96132E5,9.58945E4,2.7773938E4,1.611275E4,3.69E4,4.3212E4,9.1163E4,3.07512E5,2.0824E4,6.732E4,4.1332E4,1.7516E5,2.13376E5,5.20944E5,1.1696E4,8.3568E4,0E0,0E0,1.011744E6,1.12928E6,4.0027812E3,0E0,0E0,0E0,0E0,0E0,0E0,0E0,0E0,0E0,0E0,0E0,0E0,0E0,0E0,0E0,0E0,0E0,0E0,0E0,0E0,0E0,0E0,0E0,0E0,0E0,0E0,0E0,0E0,0E0,0E0,0E0,0E0,0E0,0E0,0E0,0E0,0E0,0E0,0E0,0E0,0E0,0E0,0E0,0E0,0E0,0E0,0E0,0E0,0E0,0E0,0E0,0E0,0E0,0E0,0E0,0E0,0E0,0E0,0E0],"parents":[2147483647,0,0,1,1,2,2,3,3,4,4,5,5,6,6,7,7,8,8,9,9,10,10,11,11,12,12,13,13,14,14,15,15,16,16,17,17,18,18,19,19,20,20,21,21,22,22,23,23,24,24,25,25,26,26,27,27,28,28,29,29,30,30,31,31,32,32,33,33,34,34,35,35,36,36,37,37,38,38,39,39,40,40,41,41,42,42,43,43,44,44,45,45,46,46,47,47,48,48,49,49,50,50,51,51,52,52,53,53,54,54,55,55,56,56,59,59,60,60,61,61],"right_children":[2,4,6,8,10,12,14,16,18,20,22,24,26,28,30,32,34,36,38,40,42,44,46,48,50,52,54,56,58,60,62,64,66,68,70,72,74,76,78,80,82,84,86,88,90,92,94,96,98,100,102,104,106,108,110,112,114,-1,-1,116,118,120,-1,-1,-1,-1,-1,-1,-1,-1,-1,-1,-1,-1,-1,-1,-1,-1,-1,-1,-1,-1,-1,-1,-1,-1,-1,-1,-1,-1,-1,-1,-1,-1,-1,-1,-1,-1,-1,-1,-1,-1,-1,-1,-1,-1,-1,-1,-1,-1,-1,-1,-1,-1,-1,-1,-1,-1,-1,-1,-1],"split_conditions":[9.95E-1,6.05E-1,2.1673E4,4.755E0,2.88635E4,1.61525E4,2.52135E4,1.5E0,4.29285E4,8.594E3,4.91155E4,1.04665E4,1.88645E4,2.38105E4,3.48345E4,5E-1,3.5E0,5E-1,4.5499998E-1,2.2935E3,1.79585E4,4.41545E4,5.19735E4,4.341E3,1.32335E4,1.7266E4,2.05985E4,2.31605E4,2.44325E4,2.70015E4,5.34245E4,4.87155E4,5E-1,3.29195E4,2.9500002E-1,4.0765E3,1.1041E4,4E0,5.18675E4,2.855E2,3.9205E3,5.525E0,2.06315E4,3.86705E4,4.81005E4,2.675E0,5.34995E4,5.805E2,7.585E3,1.2525E4,1.44765E4,1.68905E4,1.7493E4,1.9091E4,2.15205E4,2.23305E4,2.347E4,1.500163E2,1.6129492E2,2.5848E4,2.7654E4,5.057E4,4.7899696E1,-8.512737E1,1.2883437E2,1.4320921E2,2.5412817E1,5.7358465E0,-2.3867601E1,-3.1542299E0,1.2986815E1,-1.5883325E2,-2.7549414E1,4.215647E1,1.2865615E1,4.9504185E1,-6.659069E1,2.191242E1,4.0794014E1,2.317753E1,3.5367416E1,4.1048935E1,4.7447327E1,2.4666542E2,6.357519E1,1.1675445E2,2.4697012E2,-1.690652E-1,1.4428454E1,2.1215933E1,2.4595552E1,7.263573E1,2.7445978E1,3.1174738E1,3.611148E1,1.07913475E1,3.6467514E1,4.817008E1,5.5362106E1,6.117578E1,6.5258514E1,6.8570694E1,7.349367E1,8.253889E1,7.480829E1,1.0089988E2,8.727495E1,1.1419442E2,9.889587E1,1.1842489E2,9.315278E1,1.2174643E2,1.3007004E2,1.4737785E2,1.314797E2,1.7227713E2,1.9340134E2,2.2084976E2,2.772617E2,2.045075E1,3.0414175E1],"split_indices":[1,1,0,7,0,0,0,4,0,0,0,0,0,0,0,4,4,4,1,0,0,0,0,0,0,0,0,0,0,0,0,0,3,0,1,0,0,3,0,0,0,7,0,0,0,7,0,0,0,0,0,0,0,0,0,0,0,0,0,0,0,0,0,0,0,0,0,0,0,0,0,0,0,0,0,0,0,0,0,0,0,0,0,0,0,0,0,0,0,0,0,0,0,0,0,0,0,0,0,0,0,0,0,0,0,0,0,0,0,0,0,0,0,0,0,0,0,0,0,0,0],"split_type":[0,0,0,0,0,0,0,0,0,0,0,0,0,0,0,0,0,0,0,0,0,0,0,0,0,0,0,0,0,0,0,0,0,0,0,0,0,0,0,0,0,0,0,0,0,0,0,0,0,0,0,0,0,0,0,0,0,0,0,0,0,0,0,0,0,0,0,0,0,0,0,0,0,0,0,0,0,0,0,0,0,0,0,0,0,0,0,0,0,0,0,0,0,0,0,0,0,0,0,0,0,0,0,0,0,0,0,0,0,0,0,0,0,0,0,0,0,0,0,0,0],"sum_hessian":[4.0455E4,2.6156E4,1.4299E4,1.8458E4,7.698E3,1.0108E4,4.191E3,1.0918E4,7.54E3,4.304E3,3.394E3,6.384E3,3.724E3,2.405E3,1.786E3,8.33E2,1.0085E4,3.577E3,3.963E3,3.77E3,5.34E2,8.4E2,2.554E3,2.767E3,3.617E3,1.837E3,1.887E3,1.418E3,9.87E2,1.726E3,6E1,1.9E1,8.14E2,2.424E3,7.661E3,2.5E1,3.552E3,1.34E2,3.829E3,1.329E3,2.441E3,5.26E2,8E0,1.3E2,7.1E2,1.404E3,1.15E3,3.42E2,2.425E3,1.727E3,1.89E3,7.57E2,1.08E3,1.165E3,7.22E2,9.93E2,4.25E2,4.36E2,5.51E2,1.229E3,4.97E2,4.7E1,1.3E1,1.8E1,1E0,1.3E1,8.01E2,1.582E3,8.42E2,1.099E3,6.562E3,1E0,2.4E1,1.01E2,3.451E3,1.32E2,2E0,3.674E3,1.55E2,1.31E2,1.198E3,8.76E2,1.565E3,1E0,5.25E2,6E0,2E0,1.3E1,1.17E2,4.22E2,2.88E2,1E0,1.403E3,8.89E2,2.61E2,1.4E1,3.28E2,1E3,1.425E3,1.251E3,4.76E2,7.92E2,1.098E3,5.03E2,2.54E2,1.47E2,9.33E2,1.42E2,1.023E3,6.12E2,1.1E2,4.43E2,5.5E2,1.98E2,2.27E2,4.35E2,7.94E2,4.44E2,5.3E1,1.6E1,3.1E1],"tree_param":{"num_deleted":"0","num_feature":"10","num_nodes":"121","size_leaf_vector":"0"}},{"base_weights":[1.12065285E2,4.9539062E1,2.3893044E2,2.9422913E1,9.248844E1,1.6981685E2,3.7391046E2,1.5920943E1,4.126968E1,1.10662E2,6.460195E1,1.385887E2,2.1510426E2,3.1644992E2,4.4448154E2,1.995795E1,-1.7039143E1,-3.6712372E0,4.6990135E1,9.911761E1,1.71508E2,5.065016E1,7.009693E1,1.1613874E2,1.5292308E2,1.8892824E2,2.3597945E2,2.9254382E2,3.4991293E2,4.52545E2,7.079006E1,-6.182008E1,2.136192E1,-5.018011E1,-2.8745549E0,6.013128E1,-1.83474E1,2.8361925E1,5.5910812E1,8.5000946E1,1.1249576E2,1.5706151E2,2.4250655E2,1.8393778E1,5.2723576E1,6.727264E1,8.12623E1,9.7199135E1,1.2326019E2,1.4277298E2,1.6180252E2,2.194574E2,1.8619963E2,2.2081927E2,2.5151723E2,2.78944E2,3.0484097E2,3.3277286E2,3.6453787E2,4.0752655E2,5.0231238E2,3.6783913E1,7.970999E1,-1.832241E1,-8.542211E1,2.1932856E1,-1.7520686E2,-2.6527853E1,-9.50166E1,5.0539E1,-9.489691E0,-1.7205421E1,1.0387156E2,-3.4417557E1,1.8152256E1,8.536355E1,1.4331396E1,7.091486E1,4.4728886E1,6.587473E1,8.897674E1,1.0408497E2,1.2299344E2,1.4848337E2,1.8060117E2,6.9888525E2,2.3413507E2,-1.9014404E1,2.1405333E1,4.5963352E1,5.6406982E1,2.0580121E2,6.7096695E1,7.8365715E1,9.99474E1,8.265121E1,1.0615217E2,1.159105E2,1.26668724E2,1.5610776E2,1.6671202E2,1.935855E2,2.3502164E2,1.2989018E2,1.904523E2,2.2976636E2,2.0465984E2,2.661389E2,2.4137619E2,2.9966644E2,2.6656287E2,3.288385E2,2.958118E2,3.8288687E2,3.2155716E2,4.1680066E2,3.5335782E2,3.9568707E2,4.2958612E2,4.885809E2,6.2626483E2,6.5863853E0,4.2762653E1],"categories":[],"categories_nodes":[],"categories_segments":[],"categories_sizes":[],"default_left":[1,1,1,1,1,1,1,1,1,1,1,1,1,1,1,1,1,1,1,1,1,1,1,1,1,1,1,1,1,1,1,1,1,1,1,1,1,1,1,1,1,1,1,1,1,1,1,1,1,0,1,1,1,1,1,1,1,1,1,1,1,1,0,0,0,0,0,0,0,0,0,0,0,0,0,0,0,0,0,0,0,0,0,0,0,0,0,0,0,0,0,0,0,0,0,0,0,0,0,0,0,0,0,0,0,0,0,0,0,0,0,0,0,0,0,0,0,0,0,0,0,0,0],"id":10,"left_children":[1,3,5,7,9,11,13,15,17,19,21,23,25,27,29,31,33,35,37,39,41,43,45,47,49,51,53,55,57,59,61,63,65,67,69,71,73,75,77,79,81,83,85,87,89,91,93,95,97,-1,99,101,103,105,107,109,111,113,115,117,119,121,-1,-1,-1,-1,-1,-1,-1,-1,-1,-1,-1,-1,-1,-1,-1,-1,-1,-1,-1,-1,-1,-1,-1,-1,-1,-1,-1,-1,-1,-1,-1,-1,-1,-1,-1,-1,-1,-1,-1,-1,-1,-1,-1,-1,-1,-1,-1,-1,-1,-1,-1,-1,-1,-1,-1,-1,-1,-1,-1,-1,-1],"loss_changes":[3.2090122E8,2.3411892E7,1.2453408E8,2.951786E6,4.3736E6,1.2464992E7,1.8196288E7,1.1483828E6,2.527551E6,3.658116E6,2.58106E5,1.665928E6,1.924752E6,1.894352E6,6.075808E6,8.8389375E5,4.420571E5,1.0414172E6,1.447638E6,8.214E5,8.16302E5,6.377075E4,7.1666E4,2.63576E5,2.64408E5,9.2756E4,4.15808E5,1.5948E5,1.38136E5,4.240384E6,1.0414578E4,1.3189716E5,8.5206475E5,2.9653594E5,2.3403597E5,7.053948E5,5.308706E5,2.2589065E6,9.86024E5,1.57248E5,1.8639E5,1.13522E5,3.67425E5,7.16642E3,2.0042E4,3.3914E4,1.863375E4,6.4556E4,2.2416E4,0E0,2.1336E4,5.2405E3,3.29428E5,1.00592E5,8.1216E4,1.0126E5,6.6744E4,1.51168E5,1.72912E5,1.03456E5,1.290528E6,1.7043242E3,0E0,0E0,0E0,0E0,0E0,0E0,0E0,0E0,0E0,0E0,0E0,0E0,0E0,0E0,0E0,0E0,0E0,0E0,0E0,0E0,0E0,0E0,0E0,0E0,0E0,0E0,0E0,0E0,0E0,0E0,0E0,0E0,0E0,0E0,0E0,0E0,0E0,0E0,0E0,0E0,0E0,0E0,0E0,0E0,0E0,0E0,0E0,0E0,0E0,0E0,0E0,0E0,0E0,0E0,0E0,0E0,0E0,0E0,0E0,0E0,0E0],"parents":[2147483647,0,0,1,1,2,2,3,3,4,4,5,5,6,6,7,7,8,8,9,9,10,10,11,11,12,12,13,13,14,14,15,15,16,16,17,17,18,18,19,19,20,20,21,21,22,22,23,23,24,24,25,25,26,26,27,27,28,28,29,29,30,30,31,31,32,32,33,33,34,34,35,35,36,36,37,37,38,38,39,39,40,40,41,41,42,42,43,43,44,44,45,45,46,46,47,47,48,48,50,50,51,51,52,52,53,53,54,54,55,55,56,56,57,57,58,58,59,59,60,60,61,61],"right_children":[2,4,6,8,10,12,14,16,18,20,22,24,26,28,30,32,34,36,38,40,42,44,46,48,50,52,54,56,58,60,62,64,66,68,70,72,74,76,78,80,82,84,86,88,90,92,94,96,98,-1,100,102,104,106,108,110,112,114,116,118,120,122,-1,-1,-1,-1,-1,-1,-1,-1,-1,-1,-1,-1,-1,-1,-1,-1,-1,-1,-1,-1,-1,-1,-1,-1,-1,-1,-1,-1,-1,-1,-1,-1,-1,-1,-1,-1,-1,-1,-1,-1,-1,-1,-1,-1,-1,-1,-1,-1,-1,-1,-1,-1,-1,-1,-1,-1,-1,-1,-1,-1,-1],"split_conditions":[6.355E0,6.05E-1,2.1145E4,3.63E4,3.18105E4,1.5541E4,2.48415E4,4.5E0,4.355E0,9.8615E3,4.94645E4,9.8995E3,1.80935E4,2.33065E4,3.5895E4,3.9850001E0,4.385E0,3.82035E4,3.5E0,3.638E3,1.6539E4,4.18345E4,5.3114E4,5.935E3,1.26825E4,1.5782E4,1.9631E4,2.22025E4,2.40745E4,2.63305E4,5.05895E4,2.0047E4,3.627E4,4.355E0,4.415E0,4.225E0,5.5E0,1.5E0,1.5E0,6.66E2,6.2685E3,1.40525E4,1.6543E4,3.66955E4,4.71245E4,2.675E0,5.3856E4,4.2875E3,7.57E3,4.2831894E1,1.40745E4,1.56185E4,1.5937E4,1.9091E4,2.025E4,2.15205E4,2.2487E4,2.347E4,2.41875E4,2.5844E4,2.76085E4,4.6799E4,2.3912998E1,-5.496723E0,-2.5626635E1,6.579857E0,-5.256206E1,-7.9583564E0,-2.8504982E1,1.5161701E1,-2.8469074E0,-5.161627E0,3.1161469E1,-1.0325268E1,5.445677E0,2.5609066E1,4.299419E0,2.127446E1,1.3418666E1,1.976242E1,2.6693022E1,3.1225492E1,3.6898033E1,4.4545013E1,5.418035E1,2.0966559E2,7.0240524E1,-5.7043214E0,6.4216E0,1.3789006E1,1.6922096E1,6.1740364E1,2.012901E1,2.3509716E1,2.9984222E1,2.4795362E1,3.1845652E1,3.477315E1,3.8000618E1,4.683233E1,5.0013607E1,5.807565E1,7.050649E1,3.8967056E1,5.7135693E1,6.892991E1,6.1397953E1,7.984167E1,7.241286E1,8.989993E1,7.9968864E1,9.865156E1,8.8743546E1,1.14866066E2,9.6467155E1,1.250402E2,1.0600735E2,1.1870612E2,1.2887584E2,1.4657428E2,1.8787946E2,1.9759157E0,1.2828796E1],"split_indices":[8,1,0,0,0,0,0,3,7,0,0,0,0,0,0,7,7,0,4,0,0,0,0,0,0,0,0,0,0,0,0,0,0,8,8,7,4,4,3,0,0,0,0,0,0,7,0,0,0,0,0,0,0,0,0,0,0,0,0,0,0,0,0,0,0,0,0,0,0,0,0,0,0,0,0,0,0,0,0,0,0,0,0,0,0,0,0,0,0,0,0,0,0,0,0,0,0,0,0,0,0,0,0,0,0,0,0,0,0,0,0,0,0,0,0,0,0,0,0,0,0,0,0],"split_type":[0,0,0,0,0,0,0,0,0,0,0,0,0,0,0,0,0,0,0,0,0,0,0,0,0,0,0,0,0,0,0,0,0,0,0,0,0,0,0,0,0,0,0,0,0,0,0,0,0,0,0,0,0,0,0,0,0,0,0,0,0,0,0,0,0,0,0,0,0,0,0,0,0,0,0,0,0,0,0,0,0,0,0,0,0,0,0,0,0,0,0,0,0,0,0,0,0,0,0,0,0,0,0,0,0,0,0,0,0,0,0,0,0,0,0,0,0,0,0,0,0,0,0],"sum_hessian":[4.0455E4,2.71E4,1.3355E4,1.8457E4,8.643E3,8.834E3,4.521E3,8.627E3,9.83E3,5.231E3,3.412E3,5.231E3,3.603E3,2.495E3,2.026E3,7.686E3,9.41E2,1.11E3,8.72E3,4.399E3,8.32E2,9.67E2,2.445E3,2.042E3,3.189E3,1.603E3,2E3,1.461E3,1.034E3,1.983E3,4.3E1,1.29E2,7.557E3,2.81E2,6.6E2,2.07E2,9.03E2,2.825E3,5.895E3,2.144E3,2.255E3,6.94E2,1.38E2,5.9E1,9.08E2,1.957E3,4.88E2,5.62E2,1.48E3,1.496E3,1.693E3,1.25E2,1.478E3,1.02E3,9.8E2,7.05E2,7.56E2,4.87E2,5.47E2,1.046E3,9.37E2,1E1,3.3E1,4.6E1,8.3E1,7.536E3,2.1E1,1.85E2,9.6E1,7.2E1,5.88E2,7.5E1,1.32E2,6.27E2,2.76E2,5.57E2,2.268E3,2.515E3,3.38E3,3.72E2,1.772E3,1.258E3,9.97E2,5.14E2,1.8E2,1E0,1.37E2,4E0,5.5E1,3.25E2,5.83E2,1E0,1.956E3,4.27E2,6.1E1,2.18E2,3.44E2,4.8E2,1E3,7.99E2,8.94E2,5.2E1,7.3E1,1.06E2,1.372E3,6.48E2,3.72E2,3.91E2,5.89E2,2.55E2,4.5E2,1.97E2,5.59E2,8.3E1,4.04E2,9E1,4.57E2,6.93E2,3.53E2,8.48E2,8.9E1,2E0,8E0],"tree_param":{"num_deleted":"0","num_feature":"10","num_nodes":"123","size_leaf_vector":"0"}},{"base_weights":[7.851592E1,3.470113E1,1.6741577E2,2.0116287E1,6.3881508E1,1.2164701E2,2.6813928E2,2.1641798E1,-4.0918575E1,7.773747E1,4.4595352E1,1.0158026E2,1.6290234E2,2.3142136E2,3.1827872E2,8.505234E0,2.8653318E1,-9.842615E1,-6.1824317E0,6.9813576E1,1.2400175E2,3.789805E1,5.1764412E1,8.5855545E1,1.1524264E2,1.5103433E2,1.8402733E2,2.1091656E2,2.5426747E2,3.249533E2,5.0432915E1,9.10157E0,-1.5041223E2,3.3580246E1,6.8118887E0,-1.1949498E2,-4.5680264E1,-1.9417157E0,-1.317746E2,5.409834E1,7.671576E1,5.68216E2,1.2151371E2,2.4506708E1,4.0569496E1,5.0058235E1,6.0678352E1,7.155188E1,9.171596E1,1.0696792E2,1.217728E2,1.370081E2,1.5522163E2,2.3308879E2,1.766811E2,2.1427263E2,1.6005608E2,2.4195158E2,2.644539E2,3.0332828E2,3.7868307E2,2.548695E1,5.6119392E1,8.098066E0,9.321373E1,-1.704162E2,-1.2789352E1,2.772111E1,4.9868336E1,-2.5151974E1,2.5706514E1,-7.2539474E1,-1.6522101E2,-7.190116E1,-2.6676989E1,-4.2219776E1,2.933307E0,-1.6366791E2,6.168596E1,2.7776081E1,5.641421E1,7.21373E1,8.951105E1,6.586304E1,7.1371265E2,1.1587888E2,2.710319E2,1.0523086E1,2.875458E1,1.7493103E2,4.037963E1,4.7111176E1,5.192475E1,5.9506233E1,9.426419E1,7.5146E1,5.185422E1,8.5978775E1,9.5831406E1,1.085295E2,9.930715E1,1.2359279E2,9.558974E1,1.6162538E2,1.0189715E2,1.5743924E2,1.3674603E2,1.9812338E2,2.6372534E2,9.454496E1,1.856956E2,2.1036742E2,2.858991E2,1.2917499E2,1.9678485E2,2.5338661E2,1.9840233E2,2.7777164E2,2.3253014E2,2.9057565E2,3.219943E2,3.6764877E2,4.9028583E2,9.801294E0,3.4310505E1,4.9418575E1,7.586286E1],"categories":[],"categories_nodes":[],"categories_segments":[],"categories_sizes":[],"default_left":[1,1,1,1,1,1,1,1,1,1,1,1,1,1,1,1,1,1,1,1,1,1,1,1,1,1,1,1,1,1,1,1,1,1,1,1,1,1,1,1,1,1,1,1,1,1,1,1,1,1,1,1,1,1,1,1,1,1,1,1,1,1,1,0,0,0,0,0,0,0,0,0,0,0,0,0,0,0,0,0,0,0,0,0,0,0,0,0,0,0,0,0,0,0,0,0,0,0,0,0,0,0,0,0,0,0,0,0,0,0,0,0,0,0,0,0,0,0,0,0,0,0,0,0,0,0,0],"id":11,"left_children":[1,3,5,7,9,11,13,15,17,19,21,23,25,27,29,31,33,35,37,39,41,43,45,47,49,51,53,55,57,59,61,63,65,67,69,71,73,75,77,79,81,83,85,87,89,91,93,95,97,99,101,103,105,107,109,111,113,115,117,119,121,123,125,-1,-1,-1,-1,-1,-1,-1,-1,-1,-1,-1,-1,-1,-1,-1,-1,-1,-1,-1,-1,-1,-1,-1,-1,-1,-1,-1,-1,-1,-1,-1,-1,-1,-1,-1,-1,-1,-1,-1,-1,-1,-1,-1,-1,-1,-1,-1,-1,-1,-1,-1,-1,-1,-1,-1,-1,-1,-1,-1,-1,-1,-1,-1,-1],"loss_changes":[1.5757554E8,1.1532664E7,6.15384E7,1.6834625E6,2.409872E6,7.587344E6,7.607072E6,1.6237E6,8.803293E5,1.91742E6,1.79432E5,1.318224E6,7.25344E5,1.07628E6,3.131872E6,5.8296175E5,1.236761E6,1.7901625E5,1.467419E5,4.82662E5,7.78658E5,6.9016E4,2.46735E4,2.3469E5,1.65564E5,9.2028E4,3.46624E5,1.83676E5,7.8536E4,1.88128E6,4.811289E3,5.153932E5,6.1139562E4,8.93695E5,1.2791988E6,2.4137138E5,2.2497758E4,5.2747375E4,6.562689E4,8.212975E4,1.76088E5,2.4535525E5,6.12271E5,1.9180828E4,3.4519E4,5.997E3,5.72825E3,5.56425E4,3.988E4,6.76E3,7.5866E4,3.74211E5,3.9024E4,9.45065E4,6.78434E5,2.7412E5,6.8721E4,2.1167E5,1.95176E5,1.99232E5,4.21928E5,1.0477451E3,8.81375E2,0E0,0E0,0E0,0E0,0E0,0E0,0E0,0E0,0E0,0E0,0E0,0E0,0E0,0E0,0E0,0E0,0E0,0E0,0E0,0E0,0E0,0E0,0E0,0E0,0E0,0E0,0E0,0E0,0E0,0E0,0E0,0E0,0E0,0E0,0E0,0E0,0E0,0E0,0E0,0E0,0E0,0E0,0E0,0E0,0E0,0E0,0E0,0E0,0E0,0E0,0E0,0E0,0E0,0E0,0E0,0E0,0E0,0E0,0E0,0E0,0E0,0E0,0E0,0E0],"parents":[2147483647,0,0,1,1,2,2,3,3,4,4,5,5,6,6,7,7,8,8,9,9,10,10,11,11,12,12,13,13,14,14,15,15,16,16,17,17,18,18,19,19,20,20,21,21,22,22,23,23,24,24,25,25,26,26,27,27,28,28,29,29,30,30,31,31,32,32,33,33,34,34,35,35,36,36,37,37,38,38,39,39,40,40,41,41,42,42,43,43,44,44,45,45,46,46,47,47,48,48,49,49,50,50,51,51,52,52,53,53,54,54,55,55,56,56,57,57,58,58,59,59,60,60,61,61,62,62],"right_children":[2,4,6,8,10,12,14,16,18,20,22,24,26,28,30,32,34,36,38,40,42,44,46,48,50,52,54,56,58,60,62,64,66,68,70,72,74,76,78,80,82,84,86,88,90,92,94,96,98,100,102,104,106,108,110,112,114,116,118,120,122,124,126,-1,-1,-1,-1,-1,-1,-1,-1,-1,-1,-1,-1,-1,-1,-1,-1,-1,-1,-1,-1,-1,-1,-1,-1,-1,-1,-1,-1,-1,-1,-1,-1,-1,-1,-1,-1,-1,-1,-1,-1,-1,-1,-1,-1,-1,-1,-1,-1,-1,-1,-1,-1,-1,-1,-1,-1,-1,-1,-1,-1,-1,-1,-1,-1],"split_conditions":[6.355E0,5.85E-1,2.1655E4,5.5E0,3.14585E4,1.7101E4,2.52215E4,3.3303E4,3.75E-1,1.03385E4,5.08705E4,1.15495E4,2.0003E4,2.35915E4,3.5895E4,3.32705E4,3.5E0,4.16365E4,4.5111E4,2.2775E3,6.4E-1,4.52365E4,5.34655E4,6.9565E3,1.4082E4,1.77795E4,2.025E4,2.347E4,2.4337E4,2.70115E4,5.04435E4,5.05E-1,3.5E0,5.5E0,2.8850002E0,3.16435E4,2.5E0,1.80415E4,6.29E1,2.565E2,6.9635E3,1.0765E4,2.07185E4,4.16595E4,2.64E0,5.19065E4,9.6000004E-1,6.507E3,9.2E3,1.36115E4,1.68905E4,1.7493E4,1.9786E4,2.01515E4,2.0386E4,2.33365E4,2.3533E4,2.41875E4,2.49495E4,2.62835E4,2.76675E4,5.8550003E1,5.3426E4,2.42942E0,2.796412E1,-5.1124863E1,-3.8368058E0,8.316333E0,1.4960502E1,-7.5455923E0,7.7119546E0,-2.1761843E1,-4.9566303E1,-2.1570349E1,-8.003097E0,-1.2665934E1,8.799921E-1,-4.9100376E1,1.8505789E1,8.332825E0,1.6924265E1,2.164119E1,2.6853315E1,1.9758911E1,2.141138E2,3.4763668E1,8.130957E1,3.156926E0,8.626374E0,5.2479313E1,1.211389E1,1.4133353E1,1.5577426E1,1.7851871E1,2.8279259E1,2.2543802E1,1.5556267E1,2.5793634E1,2.8749422E1,3.2558853E1,2.9792147E1,3.707784E1,2.8676922E1,4.8487617E1,3.0569145E1,4.7231773E1,4.102381E1,5.9437016E1,7.911761E1,2.836349E1,5.5708683E1,6.3110226E1,8.576974E1,3.87525E1,5.9035458E1,7.601598E1,5.9520702E1,8.33315E1,6.975904E1,8.71727E1,9.659829E1,1.1029464E2,1.4708575E2,2.9403884E0,1.0293152E1,1.4825573E1,2.275886E1],"split_indices":[8,1,0,3,0,0,0,0,1,0,0,0,0,0,0,0,2,0,0,0,1,0,0,0,0,0,0,0,0,0,0,1,4,4,9,0,2,0,5,0,0,0,0,0,7,0,1,0,0,0,0,0,0,0,0,0,0,0,0,0,0,5,0,0,0,0,0,0,0,0,0,0,0,0,0,0,0,0,0,0,0,0,0,0,0,0,0,0,0,0,0,0,0,0,0,0,0,0,0,0,0,0,0,0,0,0,0,0,0,0,0,0,0,0,0,0,0,0,0,0,0,0,0,0,0,0,0],"split_type":[0,0,0,0,0,0,0,0,0,0,0,0,0,0,0,0,0,0,0,0,0,0,0,0,0,0,0,0,0,0,0,0,0,0,0,0,0,0,0,0,0,0,0,0,0,0,0,0,0,0,0,0,0,0,0,0,0,0,0,0,0,0,0,0,0,0,0,0,0,0,0,0,0,0,0,0,0,0,0,0,0,0,0,0,0,0,0,0,0,0,0,0,0,0,0,0,0,0,0,0,0,0,0,0,0,0,0,0,0,0,0,0,0,0,0,0,0,0,0,0,0,0,0,0,0,0,0],"sum_hessian":[4.0455E4,2.71E4,1.3355E4,1.807E4,9.03E3,9.184E3,4.171E3,1.763E4,4.4E2,5.253E3,3.777E3,6.181E3,3.003E3,2.411E3,1.76E3,6.136E3,1.1494E4,1.65E2,2.75E2,4.487E3,7.66E2,1.956E3,1.821E3,2.877E3,3.304E3,1.928E3,1.075E3,1.276E3,1.135E3,1.717E3,4.3E1,6.114E3,2.2E1,9.378E3,2.116E3,1.17E2,4.8E1,2.67E2,8E0,1.372E3,3.115E3,3E0,7.63E2,3.27E2,1.629E3,1.534E3,2.87E2,8.4E2,2.037E3,1.465E3,1.839E3,4.51E2,1.477E3,1.36E2,9.39E2,1.194E3,8.2E1,5.25E2,6.1E2,1.229E3,4.88E2,9E0,3.4E1,6.043E3,7.1E1,1.9E1,3E0,6.899E3,2.479E3,7.86E2,1.33E3,5.9E1,5.8E1,1.9E1,2.9E1,2.8E1,2.39E2,7E0,1E0,1.12E2,1.26E3,2.299E3,8.16E2,1E0,2E0,7.37E2,2.6E1,7.7E1,2.5E2,1E0,1.628E3,6.05E2,9.29E2,2.8E2,7E0,7.08E2,1.32E2,8.6E2,1.177E3,1.206E3,2.59E2,1.716E3,1.23E2,2.63E2,1.88E2,1.312E3,1.65E2,6.7E1,6.9E1,9.4E1,8.45E2,1.136E3,5.8E1,4.7E1,3.5E1,4.12E2,1.13E2,4.25E2,1.85E2,7.4E2,4.89E2,4.48E2,4E1,4E0,5E0,2.8E1,6E0],"tree_param":{"num_deleted":"0","num_feature":"10","num_nodes":"127","size_leaf_vector":"0"}},{"base_weights":[5.5012302E1,2.4889696E1,1.1854288E2,1.3189979E1,4.434821E1,8.836319E1,1.9433073E2,2.0437841E1,3.6442149E0,5.571496E1,3.0722412E1,7.28014E1,1.2048794E2,1.7322574E2,2.3175595E2,-1.6508102E2,2.1142874E1,-5.235345E0,1.7090546E1,5.0949215E1,9.874566E1,1.7905748E1,3.341412E1,6.204646E1,8.423332E1,1.0837269E2,1.3168707E2,1.761611E2,8.459969E1,2.3758104E2,3.7520214E1,-1.8900372E2,3.4806805E2,6.971334E1,1.9297085E1,1.3308566E0,-4.4977512E1,6.684209E0,2.4061714E1,4.263881E1,6.1247456E1,4.869956E2,9.7177124E1,8.148571E0,2.2326303E1,2.9997025E1,3.7676E1,4.6314262E1,6.530011E1,8.554538E1,5.244322E1,1.10348E2,8.3779816E1,1.5308125E2,1.287077E2,1.70913E2,2.5456616E2,2.8860813E1,1.2929738E2,2.2247794E2,2.7705685E2,2.7992432E1,4.876413E1,-2.5927878E2,-6.0051598E1,2.3892159E1,1.4245149E2,2.3604637E1,3.775745E0,-5.0026947E1,4.9352965E0,-6.2485046E0,-9.0339516E1,1.2244502E1,-2.6717104E1,4.1621872E1,1.9284006E1,3.0890043E1,4.575043E1,2.5024564E2,5.9871357E1,9.060723E1,1.666794E2,1.1291531E1,-6.4451904E0,3.758031E1,1.73089E1,1.4869135E2,2.9872889E1,5.8927624E1,3.6805737E1,1.4651089E1,4.8863102E1,9.283479E1,6.446051E1,8.351454E1,1.4911446E2,2.7061686E1,6.7783615E1,1.0726103E2,1.6981972E2,5.5485104E1,1.0535522E2,1.2573853E2,1.7994887E2,7.2534645E1,1.3372922E2,1.5706313E2,1.8666374E2,2.2513892E2,3.215665E2,3.9476104E0,4.8593994E1,9.274257E1,1.4963158E2,2.2898758E2,1.31225E2,2.6770615E2,3.571899E2,2.9200726E1,1.0083008E-1],"categories":[],"categories_nodes":[],"categories_segments":[],"categories_sizes":[],"default_left":[1,1,1,1,1,1,1,1,1,1,1,1,1,1,1,1,1,1,1,1,1,1,1,1,1,1,1,1,1,1,1,1,0,1,1,1,1,1,1,1,1,0,1,1,1,1,1,1,1,1,1,1,1,1,1,1,1,1,1,1,1,1,0,0,0,0,0,0,0,0,0,0,0,0,0,0,0,0,0,0,0,0,0,0,0,0,0,0,0,0,0,0,0,0,0,0,0,0,0,0,0,0,0,0,0,0,0,0,0,0,0,0,0,0,0,0,0,0,0,0,0],"id":12,"left_children":[1,3,5,7,9,11,13,15,17,19,21,23,25,27,29,31,33,35,37,39,41,43,45,47,49,51,53,55,57,59,61,63,-1,65,67,69,71,73,75,77,79,-1,81,83,85,87,89,91,93,95,97,99,101,103,105,107,109,111,113,115,117,119,-1,-1,-1,-1,-1,-1,-1,-1,-1,-1,-1,-1,-1,-1,-1,-1,-1,-1,-1,-1,-1,-1,-1,-1,-1,-1,-1,-1,-1,-1,-1,-1,-1,-1,-1,-1,-1,-1,-1,-1,-1,-1,-1,-1,-1,-1,-1,-1,-1,-1,-1,-1,-1,-1,-1,-1,-1,-1,-1],"loss_changes":[7.741797E7,6.247518E6,2.974456E7,1.185849E6,1.59434E6,4.644472E6,2.886288E6,1.2778458E6,8.8351156E5,1.146864E6,1.61166E5,7.66034E5,3.97652E5,6.02432E5,1.499296E6,5.1999475E5,8.68895E5,1.1631368E6,2.1333706E5,4.30351E5,2.93098E5,3.5013875E4,5.5288E4,1.62618E5,1.22232E5,6.1874E4,8.0564E4,9.01248E5,1.905975E5,7.09856E5,2.9201562E3,3.1066625E5,0E0,1.179793E6,6.2524275E5,7.0850125E5,1.1097491E6,2.198495E5,1.470245E5,1.01058E5,5.72019E5,0E0,2.39693E5,1.1814881E4,4.228597E4,2.7310125E4,2.96415E4,4.4317125E4,5.5949E4,3.63996E5,4.605728E4,2.29995E5,6.31375E4,1.1475E5,3.81538E5,4.40784E5,2.07575E5,1.7506373E4,1.808525E4,5.28924E5,1.69632E5,8.0588477E2,0E0,0E0,0E0,0E0,0E0,0E0,0E0,0E0,0E0,0E0,0E0,0E0,0E0,0E0,0E0,0E0,0E0,0E0,0E0,0E0,0E0,0E0,0E0,0E0,0E0,0E0,0E0,0E0,0E0,0E0,0E0,0E0,0E0,0E0,0E0,0E0,0E0,0E0,0E0,0E0,0E0,0E0,0E0,0E0,0E0,0E0,0E0,0E0,0E0,0E0,0E0,0E0,0E0,0E0,0E0,0E0,0E0,0E0,0E0],"parents":[2147483647,0,0,1,1,2,2,3,3,4,4,5,5,6,6,7,7,8,8,9,9,10,10,11,11,12,12,13,13,14,14,15,15,16,16,17,17,18,18,19,19,20,20,21,21,22,22,23,23,24,24,25,25,26,26,27,27,28,28,29,29,30,30,31,31,33,33,34,34,35,35,36,36,37,37,38,38,39,39,40,40,42,42,43,43,44,44,45,45,46,46,47,47,48,48,49,49,50,50,51,51,52,52,53,53,54,54,55,55,56,56,57,57,58,58,59,59,60,60,61,61],"right_children":[2,4,6,8,10,12,14,16,18,20,22,24,26,28,30,32,34,36,38,40,42,44,46,48,50,52,54,56,58,60,62,64,-1,66,68,70,72,74,76,78,80,-1,82,84,86,88,90,92,94,96,98,100,102,104,106,108,110,112,114,116,118,120,-1,-1,-1,-1,-1,-1,-1,-1,-1,-1,-1,-1,-1,-1,-1,-1,-1,-1,-1,-1,-1,-1,-1,-1,-1,-1,-1,-1,-1,-1,-1,-1,-1,-1,-1,-1,-1,-1,-1,-1,-1,-1,-1,-1,-1,-1,-1,-1,-1,-1,-1,-1,-1,-1,-1,-1,-1,-1,-1],"split_conditions":[6.375E0,5.55E-1,2.23405E4,2.5E0,3.14585E4,1.76635E4,2.5839E4,5E-1,4.685E0,1.28395E4,4.6029E4,1.25355E4,1.9934E4,2.5741E4,3.6628E4,4.87155E4,1.5E0,4.0258E4,3.9091E4,4.7735E3,6.6499996E-1,4.25465E4,5.1195E4,6.186E3,1.7493E4,1.9786E4,2.025E4,2.55155E4,2.5787E4,2.72195E4,5.20635E4,4.9700003E0,1.0442042E2,4.00705E4,3.5E0,2.9500002E-1,4.365E0,4.995E0,4.915E0,1.01E3,6.05E-1,1.460987E2,2.0291E4,4.219E4,4.35155E4,2.565E0,3.315E0,1.721E3,6.4975E3,1.73265E4,1.7561E4,1.96715E4,1.98515E4,2.01235E4,2.04315E4,2.4096E4,2.5654E4,2.57605E4,2.58065E4,2.7136E4,2.76775E4,5.18415E4,1.4629239E1,-7.778364E1,-1.801548E1,7.167648E0,4.273545E1,7.0813913E0,1.1327236E0,-1.5008084E1,1.480589E0,-1.8745514E0,-2.7101856E1,3.6733508E0,-8.015132E0,1.2486562E1,5.785202E0,9.267014E0,1.372513E1,7.507369E1,1.7961409E1,2.718217E1,5.0003822E1,3.3874593E0,-1.9335572E0,1.1274094E1,5.1926703E0,4.4607407E1,8.961867E0,1.7678288E1,1.1041721E1,4.3953266E0,1.4658931E1,2.785044E1,1.9338154E1,2.5054363E1,4.4734337E1,8.118506E0,2.0335085E1,3.217831E1,5.094592E1,1.6645533E1,3.1606565E1,3.772156E1,5.398466E1,2.1760395E1,4.0118767E1,4.711894E1,5.5999126E1,6.754168E1,9.6469955E1,1.1842831E0,1.4578198E1,2.7822771E1,4.4889473E1,6.869627E1,3.9367504E1,8.0311844E1,1.07156975E2,8.760218E0,3.0249024E-2],"split_indices":[8,1,0,3,0,0,0,4,7,0,0,0,0,0,0,0,4,0,0,0,1,0,0,0,0,0,0,0,0,0,0,7,0,0,2,1,8,8,7,0,1,0,0,0,0,7,9,0,0,0,0,0,0,0,0,0,0,0,0,0,0,0,0,0,0,0,0,0,0,0,0,0,0,0,0,0,0,0,0,0,0,0,0,0,0,0,0,0,0,0,0,0,0,0,0,0,0,0,0,0,0,0,0,0,0,0,0,0,0,0,0,0,0,0,0,0,0,0,0,0,0],"split_type":[0,0,0,0,0,0,0,0,0,0,0,0,0,0,0,0,0,0,0,0,0,0,0,0,0,0,0,0,0,0,0,0,0,0,0,0,0,0,0,0,0,0,0,0,0,0,0,0,0,0,0,0,0,0,0,0,0,0,0,0,0,0,0,0,0,0,0,0,0,0,0,0,0,0,0,0,0,0,0,0,0,0,0,0,0,0,0,0,0,0,0,0,0,0,0,0,0,0,0,0,0,0,0,0,0,0,0,0,0,0,0,0,0,0,0,0,0,0,0,0,0],"sum_hessian":[4.0455E4,2.7444E4,1.3011E4,1.714E4,1.0304E4,9.307E3,3.704E3,9.742E3,7.398E3,5.616E3,4.688E3,6.272E3,3.035E3,2.372E3,1.332E3,3.6E1,9.706E3,4.456E3,2.942E3,5.058E3,5.58E2,8.15E2,3.873E3,3.235E3,3.037E3,1.463E3,1.572E3,2.295E3,7.7E1,1.293E3,3.9E1,3.5E1,1E0,3.54E2,9.352E3,3.825E3,6.31E2,1.181E3,1.761E3,2.802E3,2.256E3,1E0,5.57E2,2.55E2,5.6E2,2.154E3,1.719E3,5.57E2,2.678E3,2.915E3,1.22E2,1.351E3,1.12E2,1.86E2,1.386E3,2.154E3,1.41E2,3.5E1,4.2E1,9.4E2,3.53E2,2.3E1,1.6E1,2.2E1,1.3E1,2.18E2,1.36E2,7.32E3,2.032E3,2.5E2,3.575E3,3.41E2,2.9E2,1.013E3,1.68E2,3.75E2,1.386E3,5.89E2,2.213E3,1.5E1,2.241E3,5.11E2,4.6E1,2.1E2,4.5E1,1.37E2,4.23E2,1E0,2.153E3,6.5E1,1.654E3,4.2E1,5.15E2,7.6E1,2.602E3,2.827E3,8.8E1,4.7E1,7.5E1,1.287E3,6.4E1,5E1,6.2E1,9.5E1,9.1E1,1.15E2,1.271E3,1.152E3,1.002E3,1.01E2,4E1,1.6E1,1.9E1,1.7E1,2.5E1,8.76E2,6.4E1,3.2E2,3.3E1,2.2E1,1E0],"tree_param":{"num_deleted":"0","num_feature":"10","num_nodes":"121","size_leaf_vector":"0"}},{"base_weights":[3.8548183E1,1.7440184E1,8.306635E1,9.235204E0,3.1086388E1,5.9204803E1,1.3048546E2,2.5970427E1,6.1072106E0,3.906088E1,2.1527037E1,4.7079586E1,7.560175E1,1.10994514E2,1.5632718E2,2.0318089E1,5.440163E1,2.2114608E0,1.6295092E1,3.3057644E1,5.8066635E1,8.299611E0,2.2898268E1,3.733474E1,5.1546932E1,6.885353E1,8.680703E1,1.1273788E2,5.0977715E1,1.5907037E2,2.6849659E1,1.3367471E2,1.8883091E1,1.0947435E2,2.7324915E1,-1.6614702E1,7.6581163E0,3.0219065E1,3.6018984E0,2.5540644E1,3.66255E1,4.2095566E2,5.640091E1,1.29852915E1,-2.869583E1,2.2032206E1,3.41415E1,3.9541435E1,1.2809764E1,4.9354233E1,5.5343063E1,7.134192E1,1.9115595E1,8.910745E1,4.9334316E1,1.1001367E2,2.1965656E2,-1.5230334E0,8.44219E1,1.4518628E2,1.8582388E2,2.2730267E1,4.64045E1,1.7563536E1,5.5648846E2,-3.791569E1,2.079926E1,2.7823362E1,1.5798502E2,1.8933207E1,9.727604E1,-3.280245E-1,-4.3144093E1,4.8643097E1,5.5240946E0,1.3679197E1,3.6567837E1,-2.976096E0,2.7326904E1,-2.0664164E1,2.6340181E1,8.976666E1,3.6075005E1,4.700293E1,4.863456E2,5.120593E1,9.419014E1,6.961493E0,4.3275208E1,-3.2000534E1,6.661731E1,1.26387634E2,2.197373E1,1.10714485E2,3.0591187E1,3.6618114E1,7.710395E1,-9.153176E0,2.3645668E1,5.0883995E1,4.562108E1,7.854718E1,5.2719936E1,6.8483536E1,1.4495544E2,-1.3028244E1,4.5676582E1,8.653642E1,1.3982594E2,2.042762E1,6.83852E1,9.908617E1,1.184646E2,1.815699E2,2.4232115E2,-1.6526655E1,1.8214243E1,4.6507183E1,9.882138E1,1.4963681E2,1.26478745E2,2.4544514E2,1.7913986E2,-3.7879639E0,2.3621626E1],"categories":[],"categories_nodes":[],"categories_segments":[],"categories_sizes":[],"default_left":[1,1,1,1,1,1,1,1,1,1,1,1,1,1,1,1,1,1,1,1,1,1,1,1,1,1,1,1,1,1,1,1,1,1,1,1,1,1,1,1,1,1,1,1,1,1,1,1,1,1,1,1,1,1,1,1,1,1,1,1,1,1,0,0,0,0,0,0,0,0,0,0,0,0,0,0,0,0,0,0,0,0,0,0,0,0,0,0,0,0,0,0,0,0,0,0,0,0,0,0,0,0,0,0,0,0,0,0,0,0,0,0,0,0,0,0,0,0,0,0,0,0,0,0,0],"id":13,"left_children":[1,3,5,7,9,11,13,15,17,19,21,23,25,27,29,31,33,35,37,39,41,43,45,47,49,51,53,55,57,59,61,63,65,67,69,71,73,75,77,79,81,83,85,87,89,91,93,95,97,99,101,103,105,107,109,111,113,115,117,119,121,123,-1,-1,-1,-1,-1,-1,-1,-1,-1,-1,-1,-1,-1,-1,-1,-1,-1,-1,-1,-1,-1,-1,-1,-1,-1,-1,-1,-1,-1,-1,-1,-1,-1,-1,-1,-1,-1,-1,-1,-1,-1,-1,-1,-1,-1,-1,-1,-1,-1,-1,-1,-1,-1,-1,-1,-1,-1,-1,-1,-1,-1,-1,-1],"loss_changes":[3.8014628E7,3.0726425E6,1.4715272E7,8.971325E5,7.84719E5,1.717792E6,2.176176E6,4.326315E5,5.7319844E5,6.38958E5,8.485875E4,2.14873E5,2.72214E5,2.54364E5,6.59916E5,3.639632E5,6.635696E5,1.0715638E6,7.059664E5,1.13611E5,7.904825E5,7.69928E4,4.061175E4,8.44065E4,2.567E4,2.83426E5,1.14478E5,6.79246E5,1.2654941E5,6.53144E5,2.167375E3,1.3648414E6,2.4305769E5,5.77863E5,1.7484805E5,1.0132032E6,7.086175E5,1.9953975E5,3.2640897E5,5.1451125E4,8.14225E4,1.23856875E5,2.58631E5,7.140566E4,1.7880871E4,2.1308125E4,7.871422E4,1.5518925E5,3.1392902E4,1.0082E4,7.139525E4,4.51092E5,9.536378E4,1.57158E5,4.3760297E4,2.05926E5,6.9315E3,8.888808E3,1.9426E4,8.1816E4,2.03906E5,9.1678125E2,0E0,0E0,0E0,0E0,0E0,0E0,0E0,0E0,0E0,0E0,0E0,0E0,0E0,0E0,0E0,0E0,0E0,0E0,0E0,0E0,0E0,0E0,0E0,0E0,0E0,0E0,0E0,0E0,0E0,0E0,0E0,0E0,0E0,0E0,0E0,0E0,0E0,0E0,0E0,0E0,0E0,0E0,0E0,0E0,0E0,0E0,0E0,0E0,0E0,0E0,0E0,0E0,0E0,0E0,0E0,0E0,0E0,0E0,0E0,0E0,0E0,0E0,0E0],"parents":[2147483647,0,0,1,1,2,2,3,3,4,4,5,5,6,6,7,7,8,8,9,9,10,10,11,11,12,12,13,13,14,14,15,15,16,16,17,17,18,18,19,19,20,20,21,21,22,22,23,23,24,24,25,25,26,26,27,27,28,28,29,29,30,30,31,31,32,32,33,33,34,34,35,35,36,36,37,37,38,38,39,39,40,40,41,41,42,42,43,43,44,44,45,45,46,46,47,47,48,48,49,49,50,50,51,51,52,52,53,53,54,54,55,55,56,56,57,57,58,58,59,59,60,60,61,61],"right_children":[2,4,6,8,10,12,14,16,18,20,22,24,26,28,30,32,34,36,38,40,42,44,46,48,50,52,54,56,58,60,62,64,66,68,70,72,74,76,78,80,82,84,86,88,90,92,94,96,98,100,102,104,106,108,110,112,114,116,118,120,122,124,-1,-1,-1,-1,-1,-1,-1,-1,-1,-1,-1,-1,-1,-1,-1,-1,-1,-1,-1,-1,-1,-1,-1,-1,-1,-1,-1,-1,-1,-1,-1,-1,-1,-1,-1,-1,-1,-1,-1,-1,-1,-1,-1,-1,-1,-1,-1,-1,-1,-1,-1,-1,-1,-1,-1,-1,-1,-1,-1,-1,-1,-1,-1],"split_conditions":[6.375E0,5.55E-1,2.13535E4,5E-1,3.14585E4,1.55485E4,2.5067E4,5.5E0,5.5E0,8.5525E3,4.40755E4,9.2075E3,1.92475E4,2.49495E4,3.6628E4,1.5E0,6.5E0,4.365E0,6.5E0,2.2615E3,6.4E-1,4.35155E4,5.34535E4,8.876E3,1.34255E4,1.9091E4,2.12465E4,2.48725E4,2.4984E4,2.68395E4,5.3532E4,4.78035E4,2.6149998E0,3.9225E4,5.11955E4,4.325E0,4.385E0,3.30465E4,4.895E0,6.05E-1,5.465E0,6.015E1,1.72245E4,4.3091E4,6E0,2.565E0,5.515E0,8.6015E3,8.9755E3,1.22775E4,1.36115E4,1.89385E4,1.91635E4,2.1165E4,2.12895E4,2.29145E4,2.49045E4,2.49665E4,2.5E4,2.64605E4,2.69145E4,4.6799E4,1.39213505E1,5.269061E0,1.6694655E2,-1.1374708E1,6.239778E0,8.347009E0,4.7395508E1,5.679962E0,2.9182814E1,-9.840736E-2,-1.2943229E1,1.459293E1,1.6572285E0,4.1037593E0,1.0970351E1,-8.928288E-1,8.1980715E0,-6.1992493E0,7.902055E0,2.693E1,1.0822502E1,1.410088E1,1.4590369E2,1.5361779E1,2.8257044E1,2.088448E0,1.2982563E1,-9.600161E0,1.9985193E1,3.791629E1,6.592119E0,3.3214348E1,9.177357E0,1.0985435E1,2.3131186E1,-2.745953E0,7.093701E0,1.5265199E1,1.3686324E1,2.3564156E1,1.5815982E1,2.0545061E1,4.3486633E1,-3.9084733E0,1.3702975E1,2.5960928E1,4.1947784E1,6.1282864E0,2.051556E1,2.9725851E1,3.5539383E1,5.4470974E1,7.269635E1,-4.957997E0,5.464273E0,1.3952155E1,2.9646416E1,4.4891045E1,3.7943626E1,7.3633545E1,5.3741962E1,-1.1363893E0,7.0864882E0],"split_indices":[8,1,0,3,0,0,0,4,4,0,0,0,0,0,0,4,4,7,4,0,1,0,0,0,0,0,0,0,0,0,0,0,9,0,0,8,8,0,7,1,7,5,0,0,4,7,8,0,0,0,0,0,0,0,0,0,0,0,0,0,0,0,0,0,0,0,0,0,0,0,0,0,0,0,0,0,0,0,0,0,0,0,0,0,0,0,0,0,0,0,0,0,0,0,0,0,0,0,0,0,0,0,0,0,0,0,0,0,0,0,0,0,0,0,0,0,0,0,0,0,0,0,0,0,0],"split_type":[0,0,0,0,0,0,0,0,0,0,0,0,0,0,0,0,0,0,0,0,0,0,0,0,0,0,0,0,0,0,0,0,0,0,0,0,0,0,0,0,0,0,0,0,0,0,0,0,0,0,0,0,0,0,0,0,0,0,0,0,0,0,0,0,0,0,0,0,0,0,0,0,0,0,0,0,0,0,0,0,0,0,0,0,0,0,0,0,0,0,0,0,0,0,0,0,0,0,0,0,0,0,0,0,0,0,0,0,0,0,0,0,0,0,0,0,0,0,0,0,0,0,0,0,0],"sum_hessian":[4.0455E4,2.7444E4,1.3011E4,1.714E4,1.0304E4,8.657E3,4.354E3,2.698E3,1.4442E4,5.616E3,4.688E3,4.979E3,3.678E3,2.485E3,1.869E3,2.252E3,4.46E2,1.0448E4,3.994E3,4.27E3,1.346E3,4.41E2,4.247E3,1.568E3,3.411E3,2.3E3,1.378E3,2.414E3,7.1E1,1.83E3,3.9E1,2.7E1,2.225E3,1.46E2,3E2,2.344E3,8.104E3,1.904E3,2.09E3,1.377E3,2.893E3,5E0,1.341E3,3.92E2,4.9E1,3.946E3,3.01E2,1.438E3,1.3E2,2.171E3,1.24E3,2.19E3,1.1E2,1.297E3,8.1E1,2.356E3,5.8E1,2.8E1,4.3E1,1.209E3,6.21E2,3.4E1,5E0,2.2E1,5E0,7.2E1,2.153E3,5.5E1,9.1E1,2.69E2,3.1E1,1.453E3,8.91E2,4E2,7.704E3,5.29E2,1.375E3,1.637E3,4.53E2,2.3E1,1.354E3,2.8E1,2.865E3,1E0,4E0,1.181E3,1.6E2,3.28E2,6.4E1,4.8E1,1E0,1E0,3.945E3,1.2E1,2.89E2,1.336E3,1.02E2,4.3E1,8.7E1,1.531E3,6.4E2,1.23E2,1.117E3,2.11E3,8E1,5E1,6E1,1.237E3,6E1,3.3E1,4.8E1,1.033E3,1.323E3,2.5E1,3.3E1,1.6E1,1.2E1,1.3E1,3E1,9.71E2,2.38E2,5.9E1,5.62E2,1E0,3.3E1],"tree_param":{"num_deleted":"0","num_feature":"10","num_nodes":"125","size_leaf_vector":"0"}},{"base_weights":[2.7017893E1,1.2231408E1,5.820357E1,5.3660364E0,2.0683064E1,4.03293E1,8.941937E1,3.0655525E1,3.5625868E0,2.7227095E1,1.5114375E1,3.3552288E1,5.2546867E1,7.52881E1,1.084386E2,-1.1348277E2,3.6573868E1,-1.2072494E1,9.333611E0,2.3314974E1,4.25958E1,-3.1712124E0,1.6404594E1,2.6892076E1,3.7256226E1,4.8220577E1,5.7790672E1,7.013759E1,8.594758E1,1.1018655E2,1.929158E1,-1.315223E2,2.9502924E2,1.9032494E2,3.3463623E1,2.5466344E0,-5.478944E1,2.8728437E1,6.311349E0,1.6362731E0,2.4347153E1,3.3998526E2,4.1256443E1,-5.130337E1,-1.2293262E0,1.608934E1,3.342541E1,1.1517507E1,2.8646547E1,3.813413E1,2.4971539E1,5.1100025E1,6.946326E0,7.509559E1,5.4252472E1,7.194666E1,2.599207E1,8.906709E1,4.0923347E1,1.0131551E2,1.3713808E2,1.6081232E1,3.4803345E1,-9.056444E1,-2.5798578E2,7.942684E1,4.173663E2,-5.8705185E1,3.7574993E1,1.3344231E1,-1.613638E1,-1.0725495E2,-1.56712E1,6.5325624E-1,4.5163506E1,8.7664585E0,-1.3790195E1,-1.00525826E2,8.473752E0,2.2165451E1,3.0325623E1,4.0500537E2,3.9952393E1,3.9300842E1,1.0024512E2,-7.096684E1,-3.412631E1,-1.7547153E1,-2.9032537E-1,1.2859838E1,1.717553E1,1.02980034E2,2.7084866E1,1.9552164E1,-1.7712482E1,3.0245655E1,2.4347317E1,3.686548E1,8.0453865E1,-1.1069031E0,3.475754E1,4.810705E1,1.0356674E2,-9.71206E0,3.399914E1,6.1171673E1,1.1107105E2,-5.718978E-1,5.8294395E1,7.037843E1,1.27839676E2,-1.7761315E0,4.2933064E1,8.567951E1,1.5332175E2,4.816576E0,6.2262062E1,1.0402285E2,5.0212917E1,2.0492336E2,1.2545839E2,2.1792896E1,1.0124415E1],"categories":[],"categories_nodes":[],"categories_segments":[],"categories_sizes":[],"default_left":[1,1,1,1,1,1,1,1,1,1,1,1,1,1,1,1,1,1,1,1,1,1,1,1,1,1,1,1,1,1,1,1,0,1,1,1,1,1,1,1,1,1,1,1,1,1,1,1,1,1,1,1,1,1,1,1,1,1,1,1,1,1,0,0,0,0,0,0,0,0,0,0,0,0,0,0,0,0,0,0,0,0,0,0,0,0,0,0,0,0,0,0,0,0,0,0,0,0,0,0,0,0,0,0,0,0,0,0,0,0,0,0,0,0,0,0,0,0,0,0,0,0,0],"id":14,"left_children":[1,3,5,7,9,11,13,15,17,19,21,23,25,27,29,31,33,35,37,39,41,43,45,47,49,51,53,55,57,59,61,63,-1,65,67,69,71,73,75,77,79,81,83,85,87,89,91,93,95,97,99,101,103,105,107,109,111,113,115,117,119,121,-1,-1,-1,-1,-1,-1,-1,-1,-1,-1,-1,-1,-1,-1,-1,-1,-1,-1,-1,-1,-1,-1,-1,-1,-1,-1,-1,-1,-1,-1,-1,-1,-1,-1,-1,-1,-1,-1,-1,-1,-1,-1,-1,-1,-1,-1,-1,-1,-1,-1,-1,-1,-1,-1,-1,-1,-1,-1,-1,-1,-1],"loss_changes":[1.8654622E7,1.592351E6,7.256564E6,6.9062875E5,4.478575E5,6.83478E5,1.264984E6,8.640352E5,1.2757905E6,3.389495E5,1.5689425E5,1.30385E5,6.41605E4,1.43359E5,3.1217E5,3.3357734E5,4.5701038E5,2.3806745E6,6.0514875E5,1.0085475E5,4.4243662E5,4.0969016E4,3.2784375E4,5.1109875E4,3.5932E4,1.92534E5,7.72985E4,1.45077E5,1.20235E5,4.59022E5,1.4322451E3,1.7864294E5,0E0,4.452405E5,3.6257788E5,5.7333494E5,1.993212E6,6.422636E5,4.4112588E5,1.4474925E5,5.5466E4,8.1359875E4,1.27799375E5,3.3200977E3,6.476303E3,2.11735E4,4.660442E4,4.661235E4,1.1026625E4,1.68302E5,5.8990547E4,2.3323425E5,4.855042E4,1.04910625E5,2.4534E5,1.45885E5,3.4887395E4,1.662225E5,4.515796E4,2.01197E5,3.59854E5,9.7017676E2,0E0,0E0,0E0,0E0,0E0,0E0,0E0,0E0,0E0,0E0,0E0,0E0,0E0,0E0,0E0,0E0,0E0,0E0,0E0,0E0,0E0,0E0,0E0,0E0,0E0,0E0,0E0,0E0,0E0,0E0,0E0,0E0,0E0,0E0,0E0,0E0,0E0,0E0,0E0,0E0,0E0,0E0,0E0,0E0,0E0,0E0,0E0,0E0,0E0,0E0,0E0,0E0,0E0,0E0,0E0,0E0,0E0,0E0,0E0,0E0,0E0],"parents":[2147483647,0,0,1,1,2,2,3,3,4,4,5,5,6,6,7,7,8,8,9,9,10,10,11,11,12,12,13,13,14,14,15,15,16,16,17,17,18,18,19,19,20,20,21,21,22,22,23,23,24,24,25,25,26,26,27,27,28,28,29,29,30,30,31,31,33,33,34,34,35,35,36,36,37,37,38,38,39,39,40,40,41,41,42,42,43,43,44,44,45,45,46,46,47,47,48,48,49,49,50,50,51,51,52,52,53,53,54,54,55,55,56,56,57,57,58,58,59,59,60,60,61,61],"right_children":[2,4,6,8,10,12,14,16,18,20,22,24,26,28,30,32,34,36,38,40,42,44,46,48,50,52,54,56,58,60,62,64,-1,66,68,70,72,74,76,78,80,82,84,86,88,90,92,94,96,98,100,102,104,106,108,110,112,114,116,118,120,122,-1,-1,-1,-1,-1,-1,-1,-1,-1,-1,-1,-1,-1,-1,-1,-1,-1,-1,-1,-1,-1,-1,-1,-1,-1,-1,-1,-1,-1,-1,-1,-1,-1,-1,-1,-1,-1,-1,-1,-1,-1,-1,-1,-1,-1,-1,-1,-1,-1,-1,-1,-1,-1,-1,-1,-1,-1,-1,-1,-1,-1],"split_conditions":[6.375E0,5.15E-1,2.0796E4,1.5E0,3.0634E4,1.6169E4,2.48495E4,5E-1,3.5E0,9.3155E3,4.17145E4,9.9205E3,1.87275E4,2.35805E4,3.6628E4,4.87155E4,5E-1,2.5E0,5E-1,3.725E2,6.4E-1,3.67895E4,5.37775E4,4.297E3,1.5782E4,1.855E4,1.9091E4,2.347E4,2.47685E4,2.7014E4,5.3532E4,3.9478E4,8.850877E1,4.58645E4,2.65E-1,2.5E0,3.75E-1,3.56855E4,4.5E0,6.05E-1,5.8895E3,3E0,2.0968E4,3.61135E4,3.7587E4,4.60345E4,6.15E-1,3.8515E3,8.876E3,1.5589E4,1.5881E4,1.84415E4,1.86395E4,1.8968E4,1.91955E4,2.34115E4,2.3507E4,2.46885E4,2.47995E4,2.69145E4,2.7136E4,2.5E0,1.0441004E1,-2.7169333E1,-7.739574E1,2.3828053E1,1.2520989E2,-1.7611557E1,1.1272498E1,4.003269E0,-4.840914E0,-3.2176487E1,-4.70136E0,1.9597688E-1,1.3549052E1,2.6299376E0,-4.1370587E0,-3.015775E1,2.5421257E0,6.649636E0,9.097687E0,1.2150162E2,1.1985718E1,1.1790253E1,3.0073536E1,-2.1290054E1,-1.0237893E1,-5.2641463E0,-8.7097615E-2,3.8579514E0,5.152659E0,3.089401E1,8.12546E0,5.865649E0,-5.313745E0,9.073697E0,7.3041954E0,1.1059644E1,2.413616E1,-3.3207095E-1,1.0427263E1,1.44321165E1,3.1070024E1,-2.913618E0,1.0199743E1,1.8351503E1,3.3321316E1,-1.7156935E-1,1.748832E1,2.1113531E1,3.8351906E1,-5.328395E-1,1.287992E1,2.5703856E1,4.5996525E1,1.4449729E0,1.867862E1,3.1206856E1,1.5063876E1,6.147701E1,3.763752E1,6.537869E0,3.0373247E0],"split_indices":[8,1,0,4,0,0,0,4,4,0,0,0,0,0,0,0,3,4,3,0,1,0,0,0,0,0,0,0,0,0,0,0,0,0,1,3,1,0,3,1,0,2,0,0,0,0,1,0,0,0,0,0,0,0,0,0,0,0,0,0,0,2,0,0,0,0,0,0,0,0,0,0,0,0,0,0,0,0,0,0,0,0,0,0,0,0,0,0,0,0,0,0,0,0,0,0,0,0,0,0,0,0,0,0,0,0,0,0,0,0,0,0,0,0,0,0,0,0,0,0,0,0,0],"split_type":[0,0,0,0,0,0,0,0,0,0,0,0,0,0,0,0,0,0,0,0,0,0,0,0,0,0,0,0,0,0,0,0,0,0,0,0,0,0,0,0,0,0,0,0,0,0,0,0,0,0,0,0,0,0,0,0,0,0,0,0,0,0,0,0,0,0,0,0,0,0,0,0,0,0,0,0,0,0,0,0,0,0,0,0,0,0,0,0,0,0,0,0,0,0,0,0,0,0,0,0,0,0,0,0,0,0,0,0,0,0,0,0,0,0,0,0,0,0,0,0,0,0,0],"sum_hessian":[4.0455E4,2.7444E4,1.3011E4,1.5144E4,1.23E4,8.275E3,4.736E3,1.007E3,1.4137E4,5.653E3,6.647E3,5.325E3,2.95E3,2.72E3,2.016E3,3.9E1,9.68E2,3.811E3,1.0326E4,4.508E3,1.145E3,4.38E2,6.209E3,1.906E3,3.419E3,1.622E3,1.328E3,1.839E3,8.81E2,1.977E3,3.9E1,3.8E1,1E0,1.8E1,9.5E2,2.84E3,9.71E2,1.391E3,8.935E3,2.05E2,4.303E3,4E0,1.141E3,1.6E1,4.22E2,6.098E3,1.11E2,1.96E2,1.71E3,3.189E3,2.3E2,1.516E3,1.06E2,2.22E2,1.106E3,1.766E3,7.3E1,8.23E2,5.8E1,1.491E3,4.86E2,3.4E1,5E0,3E1,8E0,1.3E1,5E0,4E1,9.1E2,1.8E3,1.04E3,4.14E2,5.57E2,5.14E2,8.77E2,7.963E3,9.72E2,1.2E1,1.93E2,3.156E3,1.147E3,3E0,1E0,1.106E3,3.5E1,6E0,1E1,2.2E1,4E2,1.538E3,4.56E3,8E0,1.03E2,1.54E2,4.2E1,1.242E3,4.68E2,3.098E3,9.1E1,6.3E1,1.67E2,1.436E3,8E1,6.6E1,4E1,1.62E2,6E1,7.6E1,1.03E3,1.72E3,4.6E1,2.8E1,4.5E1,7.84E2,3.9E1,2.2E1,3.6E1,1.415E3,7.6E1,6.9E1,4.17E2,1.6E1,1.8E1],"tree_param":{"num_deleted":"0","num_feature":"10","num_nodes":"123","size_leaf_vector":"0"}},{"base_weights":[1.8932047E1,1.2102297E1,5.2092495E1,6.778035E0,2.5315819E1,3.765066E1,7.096429E1,-1.962398E1,7.703326E0,2.0036097E1,3.457716E1,2.8242489E1,4.468472E1,6.3359566E1,9.206395E1,-4.4657368E1,-4.4163756E0,2.800018E1,6.3289633E0,1.5946792E1,2.252819E1,3.58637E1,1.161292E1,2.2220844E1,3.238425E1,4.5763016E1,1.7807661E1,6.59828E1,-2.5385849E1,8.682201E1,1.3458148E2,-9.3819565E1,-4.0330334E1,-7.6061584E1,1.4104071E0,9.780518E0,5.281604E1,-2.4351694E1,8.233301E0,1.7427519E1,3.3439386E0,2.8842045E1,2.145478E1,3.1341087E1,4.90461E1,1.0183024E1,4.2333954E1,-1.3940263E1,2.338199E1,3.3620506E1,1.0287435E1,4.445923E1,1.19088684E2,-9.417713E0,4.175783E1,6.287132E1,1.807073E2,-7.51005E1,3.3460773E1,1.2783514E2,8.350619E1,1.3860045E2,1.8547485E1,-1.0701634E2,1.0485315E2,-4.8687664E1,-2.1257984E1,-1.3073413E1,-8.308744E1,1.1338454E1,-3.4324924E1,2.6596386E1,-5.9443016E0,5.5984356E1,-3.584937E1,-3.472492E1,7.382987E-1,5.061023E1,6.9980245E0,1.5523849E1,4.8439026E1,-1.6049995E1,1.5651711E1,2.2616196E1,4.863014E1,-8.0694E0,2.2751703E1,6.0377426E1,3.050568E1,2.3361858E2,4.722337E1,2.2068431E0,1.2161745E1,5.297173E1,1.8453247E1,-2.5025482E0,-3.8092144E1,2.4111319E1,1.4306641E1,3.2329094E1,6.921361E1,-1.1643908E1,2.0678698E1,4.6017345E1,3.3816647E1,-1.832369E1,2.327611E0,2.2467882E1,4.5138645E1,6.409828E1,4.186488E1,1.4625407E2,1.9869899E2,-9.437415E1,-3.944901E1,5.21076E0,4.7325245E1,8.324173E1,1.4584236E2,2.6319687E1,8.563282E1,1.19934456E2,1.840561E2],"categories":[],"categories_nodes":[],"categories_segments":[],"categories_sizes":[],"default_left":[1,1,1,1,1,1,1,1,1,1,1,1,1,1,1,1,1,1,1,1,1,1,1,1,1,1,1,1,1,1,1,1,1,1,1,1,1,1,1,1,1,1,1,1,1,1,1,1,1,1,1,1,0,1,1,1,1,1,1,1,1,1,0,0,0,0,0,0,0,0,0,0,0,0,0,0,0,0,0,0,0,0,0,0,0,0,0,0,0,0,0,0,0,0,0,0,0,0,0,0,0,0,0,0,0,0,0,0,0,0,0,0,0,0,0,0,0,0,0,0,0,0,0],"id":15,"left_children":[1,3,5,7,9,11,13,15,17,19,21,23,25,27,29,31,33,35,37,39,41,43,45,47,49,51,53,55,57,59,61,63,65,67,69,71,73,75,77,79,81,83,85,87,89,91,93,95,97,99,101,103,-1,105,107,109,111,113,115,117,119,121,-1,-1,-1,-1,-1,-1,-1,-1,-1,-1,-1,-1,-1,-1,-1,-1,-1,-1,-1,-1,-1,-1,-1,-1,-1,-1,-1,-1,-1,-1,-1,-1,-1,-1,-1,-1,-1,-1,-1,-1,-1,-1,-1,-1,-1,-1,-1,-1,-1,-1,-1,-1,-1,-1,-1,-1,-1,-1,-1,-1,-1],"loss_changes":[9.161747E6,2.3600055E6,1.88033E6,5.843595E5,4.70433E5,2.57889E5,4.74575E5,3.0816797E5,6.443424E5,6.220275E4,1.029005E5,4.113025E4,6.40745E4,5.14767E5,1.646095E5,6.1310562E4,2.1092511E5,6.618635E5,1.2646052E6,4.3385438E4,2.5216375E4,1.95861E5,7.783426E3,2.9171938E4,2.6752875E4,2.00439E5,5.777387E4,7.52898E5,1.8974744E5,8.54715E4,3.7067875E4,7.414514E4,4.40735E4,1.5730531E4,1.6642717E5,2.238629E5,1.761775E5,3.292598E5,1.0663256E6,1.22219375E5,5.8970457E4,6.6782125E4,1.250875E5,5.8025E4,2.729115E5,2.8140332E3,1.0547998E3,5.9820044E3,4.06325E3,4.092375E4,1.2547074E4,3.353175E4,0E0,4.436E3,2.0509688E3,5.1081E4,5.65225E3,2.032675E4,1.1503543E4,2.8812938E4,7.76465E4,4.7500125E4,0E0,0E0,0E0,0E0,0E0,0E0,0E0,0E0,0E0,0E0,0E0,0E0,0E0,0E0,0E0,0E0,0E0,0E0,0E0,0E0,0E0,0E0,0E0,0E0,0E0,0E0,0E0,0E0,0E0,0E0,0E0,0E0,0E0,0E0,0E0,0E0,0E0,0E0,0E0,0E0,0E0,0E0,0E0,0E0,0E0,0E0,0E0,0E0,0E0,0E0,0E0,0E0,0E0,0E0,0E0,0E0,0E0,0E0,0E0,0E0,0E0],"parents":[2147483647,0,0,1,1,2,2,3,3,4,4,5,5,6,6,7,7,8,8,9,9,10,10,11,11,12,12,13,13,14,14,15,15,16,16,17,17,18,18,19,19,20,20,21,21,22,22,23,23,24,24,25,25,26,26,27,27,28,28,29,29,30,30,31,31,32,32,33,33,34,34,35,35,36,36,37,37,38,38,39,39,40,40,41,41,42,42,43,43,44,44,45,45,46,46,47,47,48,48,49,49,50,50,51,51,53,53,54,54,55,55,56,56,57,57,58,58,59,59,60,60,61,61],"right_children":[2,4,6,8,10,12,14,16,18,20,22,24,26,28,30,32,34,36,38,40,42,44,46,48,50,52,54,56,58,60,62,64,66,68,70,72,74,76,78,80,82,84,86,88,90,92,94,96,98,100,102,104,-1,106,108,110,112,114,116,118,120,122,-1,-1,-1,-1,-1,-1,-1,-1,-1,-1,-1,-1,-1,-1,-1,-1,-1,-1,-1,-1,-1,-1,-1,-1,-1,-1,-1,-1,-1,-1,-1,-1,-1,-1,-1,-1,-1,-1,-1,-1,-1,-1,-1,-1,-1,-1,-1,-1,-1,-1,-1,-1,-1,-1,-1,-1,-1,-1,-1,-1,-1],"split_conditions":[6.815E0,8.35E-1,2.3184E4,4.135E0,1.3455E4,1.8345E4,2.655E4,5.5E0,4.3050003E0,6.9265E3,4.261E4,1.4495E4,2.30535E4,2.64605E4,2.76175E4,1.5E0,1.5E0,4.275E0,4.335E0,6.5075E3,7.845E3,1.92395E4,5.3834E4,4.1785E3,1.8191E4,2.2964E4,2.31135E4,2.6391E4,2.651E4,2.6608E4,3.847E4,4.95E-1,3.5291E4,1.4878E4,2.5E0,4.255E0,5.5E0,5.5E0,4.355E0,6.2685E3,6.637E3,7.6295E3,8.0755E3,9.8E-1,9.5500004E-1,4.91455E4,5.39065E4,3.8475E3,1.41905E4,1.812E4,1.8247E4,2.24865E4,3.572661E1,2.3086E4,2.3127E4,2.6211E4,2.64205E4,2.6492E4,2.65265E4,2.65685E4,2.66395E4,2.7723E4,5.5642457E0,-3.2104904E1,3.1455946E1,-1.4606299E1,-6.3773956E0,-3.922024E0,-2.4926233E1,3.4015365E0,-1.0297478E1,7.978916E0,-1.7832905E0,1.6795307E1,-1.0754811E1,-1.0417476E1,2.2148962E-1,1.5183069E1,2.0994074E0,4.6571546E0,1.4531709E1,-4.8149986E0,4.6955137E0,6.784859E0,1.4589042E1,-2.42082E0,6.8255115E0,1.8113228E1,9.151705E0,7.008558E1,1.4167011E1,6.62053E-1,3.6485236E0,1.589152E1,5.5359745E0,-7.507645E-1,-1.1427644E1,7.233396E0,4.291992E0,9.698729E0,2.0764084E1,-3.4931724E0,6.2036095E0,1.3805204E1,1.0144995E1,-5.4971075E0,6.982833E-1,6.740365E0,1.35415945E1,1.9229485E1,1.2559464E1,4.3876225E1,5.96097E1,-2.8312246E1,-1.1834703E1,1.5632281E0,1.4197574E1,2.497252E1,4.375271E1,7.8959064E0,2.5689848E1,3.598034E1,5.5216835E1],"split_indices":[8,1,0,7,0,0,0,4,8,0,0,0,0,0,0,2,2,7,7,0,0,0,0,0,0,0,0,0,0,0,0,1,0,0,3,8,3,4,8,0,0,0,0,1,1,0,0,0,0,0,0,0,0,0,0,0,0,0,0,0,0,0,0,0,0,0,0,0,0,0,0,0,0,0,0,0,0,0,0,0,0,0,0,0,0,0,0,0,0,0,0,0,0,0,0,0,0,0,0,0,0,0,0,0,0,0,0,0,0,0,0,0,0,0,0,0,0,0,0,0,0,0,0],"split_type":[0,0,0,0,0,0,0,0,0,0,0,0,0,0,0,0,0,0,0,0,0,0,0,0,0,0,0,0,0,0,0,0,0,0,0,0,0,0,0,0,0,0,0,0,0,0,0,0,0,0,0,0,0,0,0,0,0,0,0,0,0,0,0,0,0,0,0,0,0,0,0,0,0,0,0,0,0,0,0,0,0,0,0,0,0,0,0,0,0,0,0,0,0,0,0,0,0,0,0,0,0,0,0,0,0,0,0,0,0,0,0,0,0,0,0,0,0,0,0,0,0,0,0],"sum_hessian":[4.0455E4,3.3547E4,6.908E3,2.3913E4,9.634E3,3.915E3,2.993E3,8.09E2,2.3104E4,6.138E3,3.496E3,1.677E3,2.238E3,2.203E3,7.9E2,3.05E2,5.04E2,1.464E3,2.164E4,2.327E3,3.811E3,